1.321203708648681641e-01,2.870047092437744141e-01,4.123237729072570801e-01,3.950822353363037109e-01
2.557396888732910156e-02,3.320811390876770020e-01,4.642459154129028320e-01,8.367455005645751953e-02
6.195425987243652344e-03,-7.536381483078002930e-02,1.172262430191040039e-01,1.664274930953979492e-01
-1.431956291198730469e-01,1.407327055931091309e-01,-2.810658812522888184e-01,2.262966036796569824e-01
-2.338593602180480957e-01,-2.811837196350097656e-02,-2.156354188919067383e-01,3.192644119262695312e-01
-2.531028389930725098e-01,-2.371718287467956543e-01,-4.124824404716491699e-01,-1.272165775299072266e-01
4.621565341949462891e-03,-3.868671059608459473e-01,3.870872855186462402e-01,1.681983470916748047e-02
1.649507880210876465e-01,-2.733770012855529785e-01,-7.423496246337890625e-02,-9.352964162826538086e-02
-4.108911752700805664e-01,-3.633540868759155273e-01,-3.067538738250732422e-01,7.277822494506835938e-02
-2.105737328529357910e-01,4.833915829658508301e-01,-2.086099386215209961e-01,-4.497209787368774414e-01
###
-2.476239800453186035e-01,-7.829575985670089722e-02,6.321993470191955566e-02,1.232670024037361145e-01,7.394073903560638428e-02,-2.718451023101806641e-01,3.691205289214849472e-03,1.684349030256271362e-01,-5.708115547895431519e-02,2.012796550989151001e-01
-2.388119697570800781e-01,-2.112665623426437378e-01,-1.453577280044555664e-01,2.886441946029663086e-01,-1.895112693309783936e-01,-7.414871454238891602e-02,-2.501779794692993164e-01,-1.152191217988729477e-02,2.210006415843963623e-01,9.346058219671249390e-02
-1.193910390138626099e-01,-1.375331580638885498e-01,2.036474496126174927e-01,-1.714753806591033936e-01,1.661558002233505249e-01,3.137309849262237549e-01,-2.979142963886260986e-01,1.813047230243682861e-01,2.664412856101989746e-01,-1.644831448793411255e-01
1.366142928600311279e-01,-2.437692433595657349e-01,-1.445283833891153336e-02,-1.211189702153205872e-01,-8.413454145193099976e-02,3.151610121130943298e-02,8.712178468704223633e-02,-1.314372476190328598e-02,2.746349200606346130e-02,-2.482229918241500854e-01
-2.493831217288970947e-01,4.509915038943290710e-02,1.690623760223388672e-01,2.711426317691802979e-01,-1.247506514191627502e-01,1.808589547872543335e-01,-2.077282667160034180e-01,1.224483996629714966e-01,-9.613004326820373535e-02,-1.364728529006242752e-02
-2.307587414979934692e-01,-2.132712006568908691e-01,1.219195872545242310e-01,-3.151505291461944580e-01,2.421623170375823975e-01,-1.257016360759735107e-01,-1.127906590700149536e-01,2.288425117731094360e-01,-1.396201923489570618e-02,4.974598065018653870e-02
7.277310639619827271e-02,-2.937213480472564697e-01,-8.515421301126480103e-02,-1.880319118499755859e-01,1.958457008004188538e-02,-2.068580240011215210e-01,-2.209943085908889771e-01,-3.578004240989685059e-02,-1.987587958574295044e-01,-1.187119632959365845e-01
1.050408557057380676e-02,-9.786705486476421356e-03,2.329908013343811035e-01,-2.737266719341278076e-01,-1.887363754212856293e-02,4.117392003536224365e-02,2.472488582134246826e-01,2.179170101881027222e-01,-2.146203815937042236e-01,-6.418158859014511108e-02
2.223660796880722046e-01,-1.551247835159301758e-01,-6.676547974348068237e-02,-3.086259663105010986e-01,-2.554978728294372559e-01,8.169797807931900024e-02,-2.834568321704864502e-01,3.086056709289550781e-01,-2.973686158657073975e-01,-2.395484596490859985e-01
2.070266455411911011e-01,1.339276731014251709e-01,-1.392616629600524902e-01,-2.520983219146728516e-01,7.370223104953765869e-02,-1.500160843133926392e-01,2.790432870388031006e-01,1.058653295040130615e-01,-2.784675955772399902e-01,9.365785121917724609e-02
###
-8.146723359823226929e-02,-5.692161992192268372e-02,-2.220833860337734222e-02,-5.313986912369728088e-02,2.538121640682220459e-01,2.634493820369243622e-02,-1.880036890506744385e-01,-2.543603479862213135e-01,2.389653623104095459e-01,7.188849896192550659e-02
-2.192942053079605103e-01,-4.693055897951126099e-02,-7.703451812267303467e-02,-2.701364159584045410e-01,3.019304275512695312e-01,2.193671464920043945e-01,-2.620362639427185059e-01,2.797055840492248535e-01,-1.842024475336074829e-01,2.897299230098724365e-01
-2.801559567451477051e-01,6.245015561580657959e-02,-1.094812527298927307e-01,-2.634291350841522217e-01,2.011269330978393555e-01,7.686292380094528198e-02,-2.578170597553253174e-01,1.146171316504478455e-01,2.048248201608657837e-01,-1.433761715888977051e-01
2.073127627372741699e-01,2.749156951904296875e-01,-6.072961166501045227e-02,-1.166692227125167847e-01,-2.710306830704212189e-02,2.445159107446670532e-01,1.693385839462280273e-01,1.394732147455215454e-01,-1.868173480033874512e-01,-1.124874949455261230e-01
-1.277795135974884033e-01,1.959832161664962769e-01,5.649307742714881897e-02,-1.720311865210533142e-02,-8.979346603155136108e-02,-1.750485599040985107e-01,-2.548742592334747314e-01,1.426804577931761742e-03,-2.047923207283020020e-01,-4.890442639589309692e-02
-7.952902466058731079e-02,1.571293771266937256e-01,1.387137323617935181e-01,1.153684034943580627e-01,-2.429611235857009888e-01,-6.176579743623733521e-02,-2.012796550989151001e-01,-1.175818368792533875e-01,9.552918374538421631e-02,2.972843050956726074e-01
-1.385772973299026489e-01,-9.608533233404159546e-02,-2.075941711664199829e-01,-8.431330323219299316e-02,1.266918033361434937e-01,8.954474329948425293e-02,-2.180625870823860168e-02,1.435104757547378540e-01,-2.493720054626464844e-01,-1.496567204594612122e-02
1.169806793332099915e-01,2.233994007110595703e-01,-1.641826182603836060e-01,-1.520597785711288452e-01,2.171969562768936157e-01,-5.608278140425682068e-02,-6.075219437479972839e-02,-2.546949982643127441e-01,2.674944400787353516e-01,-3.153600990772247314e-01
1.098509877920150757e-01,9.070634841918945312e-02,1.478983014822006226e-01,-2.334519028663635254e-01,-1.405310779809951782e-01,-6.737919151782989502e-02,-1.941477060317993164e-01,-1.850156486034393311e-01,1.756160110235214233e-01,2.419626712799072266e-01
-1.857175678014755249e-01,2.837648987770080566e-01,2.934095263481140137e-01,-2.779654264450073242e-01,1.304099559783935547e-01,-7.964045554399490356e-02,-2.730470299720764160e-01,-1.172560900449752808e-01,1.253623962402343750e-01,3.009126484394073486e-01
###
-5.615708231925964355e-02,-1.324514895677566528e-01,-2.644567489624023438e-01,1.948746144771575928e-01,-7.033959776163101196e-02,2.860315144062042236e-01,-1.574560999870300293e-01,2.516080141067504883e-01,-2.283942103385925293e-01,1.961778551340103149e-01
-1.723219454288482666e-01,-1.747085601091384888e-01,2.319270968437194824e-01,1.816197931766510010e-01,1.155252978205680847e-01,-1.457089036703109741e-01,2.108239233493804932e-01,-1.629180312156677246e-01,1.662241071462631226e-01,4.043392091989517212e-02
2.694362998008728027e-01,-2.902845740318298340e-01,-1.351054608821868896e-01,-8.677372336387634277e-02,-2.341641932725906372e-01,-3.132969737052917480e-01,3.695208579301834106e-02,2.286045253276824951e-01,2.327417284250259399e-01,1.939624249935150146e-01
1.817873269319534302e-01,2.643273174762725830e-01,2.036837190389633179e-01,3.592852968722581863e-03,2.360100448131561279e-01,-2.192134112119674683e-01,-7.789137959480285645e-02,2.029554098844528198e-01,6.300298869609832764e-02,5.268180742859840393e-02
-1.032115519046783447e-01,3.188448026776313782e-02,5.669208243489265442e-02,7.244329154491424561e-02,4.033911228179931641e-02,-1.027288362383842468e-01,-2.917113304138183594e-01,2.042478621006011963e-01,-2.554066665470600128e-02,1.543635725975036621e-01
-1.491319760680198669e-02,-1.426523029804229736e-01,2.284402400255203247e-01,-1.568952351808547974e-01,1.945973485708236694e-01,-1.955562978982925415e-01,6.373039633035659790e-02,-1.608948558568954468e-01,-2.708503603935241699e-01,4.420270770788192749e-02
2.898799180984497070e-01,1.306414157152175903e-01,-2.101037502288818359e-01,1.364932507276535034e-01,2.739520370960235596e-01,2.717409050092101097e-03,-5.565080791711807251e-02,-2.058217972517013550e-01,1.811143159866333008e-01,-1.539376229047775269e-01
-9.026569873094558716e-02,-2.795911729335784912e-01,8.264055848121643066e-02,-8.742038160562515259e-03,-2.903352081775665283e-01,-2.898445725440979004e-01,2.671481072902679443e-01,-1.435243934392929077e-01,-2.388811856508255005e-01,-1.414691358804702759e-01
2.139823883771896362e-01,-2.506406009197235107e-01,-6.123550981283187866e-02,-2.345055043697357178e-01,2.082983553409576416e-01,2.676222324371337891e-01,-3.162151277065277100e-01,-1.008756738156080246e-02,2.564469277858734131e-01,-2.194095253944396973e-01
-1.930981278419494629e-01,5.844029411673545837e-02,2.811495661735534668e-01,-3.145113289356231689e-01,-1.347427368164062500e-01,-2.468373924493789673e-01,-3.155587017536163330e-01,-1.525296363979578018e-02,6.891527771949768066e-02,6.705906242132186890e-02
###
-8.324266225099563599e-02,-7.063189987093210220e-03,-1.120743006467819214e-01,-2.721073627471923828e-01,1.211709156632423401e-01,-2.868423759937286377e-01,-2.179694473743438721e-01,2.757144272327423096e-01,1.914994269609451294e-01,-3.134443461894989014e-01
2.788026928901672363e-01,-6.923449784517288208e-02,3.105248510837554932e-01,1.922218203544616699e-01,3.017094135284423828e-01,-1.559911072254180908e-01,-2.171193659305572510e-01,6.390972062945365906e-03,-9.412258514203131199e-04,-1.297614872455596924e-01
1.688292920589447021e-01,1.736032813787460327e-01,-1.990837901830673218e-01,-3.009658157825469971e-01,-1.792119592428207397e-01,3.056629002094268799e-01,-1.747490465641021729e-01,-2.315489947795867920e-01,1.736781448125839233e-01,1.751364320516586304e-01
-2.083797454833984375e-01,-2.560641467571258545e-01,-8.493146300315856934e-02,2.529318332672119141e-01,-2.394840419292449951e-01,-3.029580228030681610e-03,2.001831531524658203e-01,-2.057920843362808228e-01,-6.031848490238189697e-02,1.667559146881103516e-01
-2.285531461238861084e-01,3.472033143043518066e-02,-1.043484285473823547e-01,-8.766564726829528809e-02,-2.745136022567749023e-01,3.038751482963562012e-01,-1.475952118635177612e-01,-1.916706562042236328e-01,1.047536358237266541e-01,-2.165367603302001953e-01
-3.112126588821411133e-01,-2.736015915870666504e-01,2.263588309288024902e-01,-1.647005081176757812e-01,-9.262660890817642212e-02,2.319146841764450073e-01,2.000276893377304077e-01,3.074790835380554199e-01,1.017202883958816528e-01,-5.740241333842277527e-02
3.058038651943206787e-01,-1.638258099555969238e-01,2.560574412345886230e-01,-1.902968138456344604e-01,-1.630426496267318726e-01,-1.110264286398887634e-02,1.783364713191986084e-01,2.803167104721069336e-01,-3.117910921573638916e-01,1.913535743951797485e-01
7.475213706493377686e-02,1.647959947586059570e-01,-7.379006594419479370e-02,3.131645545363426208e-02,3.277470171451568604e-02,-2.726409435272216797e-01,2.142174392938613892e-01,2.778713703155517578e-01,-1.830587387084960938e-01,-6.925715506076812744e-02
-6.620933115482330322e-02,2.431708760559558868e-02,2.680493593215942383e-01,1.068287938833236694e-01,2.626290321350097656e-01,2.944835424423217773e-01,-1.348543614149093628e-01,-1.483350098133087158e-01,-1.041121780872344971e-01,5.034925043582916260e-02
-1.349520683288574219e-01,-6.681384146213531494e-02,-3.081477582454681396e-01,-1.051151156425476074e-01,-3.043668270111083984e-01,5.260124802589416504e-02,8.869496732950210571e-02,-2.770035564899444580e-01,-2.251758873462677002e-01,-2.489142864942550659e-01
###
1.782881170511245728e-01,2.217079550027847290e-01,-2.872458696365356445e-01,1.395239531993865967e-01,-5.365500226616859436e-02,6.547019630670547485e-02,2.209422588348388672e-01,-1.233068108558654785e-01,2.441912293434143066e-01,-2.301203310489654541e-01
2.900883257389068604e-01,2.711331248283386230e-01,-7.020750641822814941e-02,1.527738422155380249e-01,1.474624723196029663e-01,-8.309066295623779297e-02,7.997898012399673462e-02,1.650175303220748901e-01,1.024102196097373962e-01,4.653729964047670364e-03
2.776742875576019287e-01,-4.100605472922325134e-02,-1.257792580872774124e-02,1.582177728414535522e-02,2.190441191196441650e-01,-9.639188647270202637e-02,1.190893501043319702e-01,-1.288056671619415283e-01,9.162385761737823486e-02,2.224236875772476196e-01
1.974800229072570801e-01,2.158471643924713135e-01,-2.339947521686553955e-01,2.071714773774147034e-02,1.846477985382080078e-01,6.752896308898925781e-02,1.195510625839233398e-01,-1.029229015111923218e-01,2.775368094444274902e-01,2.082770913839340210e-01
1.108728498220443726e-01,2.567837536334991455e-01,-2.904336452484130859e-01,-2.090170532464981079e-01,-2.084393501281738281e-01,-3.063885867595672607e-01,1.994506828486919403e-02,-1.929463297128677368e-01,-9.882343560457229614e-02,-3.225568449124693871e-03
1.799217313528060913e-01,5.695158988237380981e-02,2.240298837423324585e-01,-8.434881269931793213e-02,-2.480467110872268677e-01,-2.162184864282608032e-01,1.012786254286766052e-01,-3.027005493640899658e-02,2.620789408683776855e-01,-1.795660853385925293e-01
-1.625501364469528198e-01,-1.064292415976524353e-01,-2.632573544979095459e-01,3.114827275276184082e-01,6.113218143582344055e-02,2.455443739891052246e-01,1.514429748058319092e-01,-1.003078818321228027e-01,-2.136078625917434692e-01,3.008505105972290039e-01
-2.702556177973747253e-02,1.788869351148605347e-01,1.017690673470497131e-01,2.112927734851837158e-01,2.160457223653793335e-01,-6.358024664223194122e-03,1.665735244750976562e-01,-2.240290641784667969e-01,-3.036995530128479004e-01,-2.095136046409606934e-02
1.027608066797256470e-01,-1.890795975923538208e-01,-1.100753247737884521e-01,-6.421461701393127441e-02,7.400335371494293213e-02,2.916709482669830322e-01,-1.323770359158515930e-02,1.819241642951965332e-01,6.074506789445877075e-02,-2.787886261940002441e-01
-9.270430356264114380e-02,3.016612827777862549e-01,-6.372194737195968628e-02,-1.878105290234088898e-02,-3.068623244762420654e-01,2.085542529821395874e-01,2.913220226764678955e-01,1.240709722042083740e-01,9.905512630939483643e-02,2.004030048847198486e-01
###
2.314375489950180054e-01,4.987954162061214447e-03,1.951728016138076782e-01,-9.626428037881851196e-02,1.186269149184226990e-01,2.002543658018112183e-01,7.022612541913986206e-02,1.861990839242935181e-01,1.179741099476814270e-01,-6.965403258800506592e-02
-1.502713412046432495e-01,1.656072288751602173e-01,-2.887891232967376709e-02,-1.166833192110061646e-01,3.126132488250732422e-01,2.781344652175903320e-01,1.987290084362030029e-01,6.700794398784637451e-02,-1.939268261194229126e-01,2.758388221263885498e-01
-5.677829682826995850e-02,1.356516927480697632e-01,-1.503105461597442627e-01,2.860272228717803955e-01,-2.399443238973617554e-01,2.658430337905883789e-01,1.004991978406906128e-01,-2.471510618925094604e-01,-2.302305996417999268e-01,-2.349597215652465820e-01
8.908008784055709839e-02,-1.946825832128524780e-01,1.157904937863349915e-01,1.850652545690536499e-01,2.037063688039779663e-01,-2.145299017429351807e-01,-5.961132422089576721e-02,3.100135624408721924e-01,-1.143927574157714844e-01,5.460798740386962891e-02
3.885821253061294556e-02,-3.152453601360321045e-01,1.509236544370651245e-01,-1.111102998256683350e-01,8.880255371332168579e-02,2.598975896835327148e-01,8.249222300946712494e-03,-1.033961921930313110e-01,5.755508784204721451e-03,1.665402799844741821e-01
-5.953347682952880859e-02,1.953616738319396973e-01,-9.895149618387222290e-02,-2.976363003253936768e-01,2.127345353364944458e-01,-1.112170591950416565e-01,2.439201474189758301e-01,1.632024906575679779e-02,2.044577896595001221e-01,2.757937312126159668e-01
1.307091265916824341e-01,2.655989527702331543e-01,2.885414361953735352e-01,-1.346776336431503296e-01,1.758503466844558716e-01,-2.668808698654174805e-01,-5.014775693416595459e-02,-2.427444010972976685e-01,3.141380846500396729e-01,-2.527083754539489746e-01
6.277729570865631104e-02,-1.571412235498428345e-01,-7.815846055746078491e-02,1.428242325782775879e-01,-1.012176275253295898e-01,2.377093732357025146e-01,-1.883212476968765259e-01,2.185203135013580322e-01,-1.551206111907958984e-01,1.130049303174018860e-01
-1.948890984058380127e-01,-1.653976738452911377e-01,8.127670735120773315e-02,-2.078970670700073242e-01,-3.014506101608276367e-01,6.591231375932693481e-02,1.013205423951148987e-01,5.648406967520713806e-02,-2.849222123622894287e-01,-1.356347203254699707e-01
-1.504916101694107056e-01,2.942851483821868896e-01,2.850702702999114990e-01,1.273144781589508057e-01,-8.405296504497528076e-02,-1.281921565532684326e-01,-2.895638048648834229e-01,-1.650337427854537964e-01,2.446314543485641479e-01,-1.450176239013671875e-01
###
-1.182531118392944336e-01,2.032120823860168457e-01,-1.913169026374816895e-01,-2.895735204219818115e-01,1.861805319786071777e-01,-2.008083164691925049e-01,2.469951510429382324e-01,2.617813348770141602e-01,-5.574546754360198975e-02,1.274936199188232422e-01
-1.682579219341278076e-01,-2.848896980285644531e-01,-4.309912025928497314e-02,4.775183275341987610e-02,1.137549206614494324e-01,2.086012214422225952e-01,-2.640462219715118408e-01,-7.485983520746231079e-02,2.844387292861938477e-01,3.297204524278640747e-02
2.849314808845520020e-01,2.285734713077545166e-01,-3.143214583396911621e-01,-2.348647266626358032e-01,-1.113293990492820740e-01,1.862790733575820923e-01,8.609038591384887695e-02,-4.215951543301343918e-03,-5.394218023866415024e-03,-1.018046513199806213e-01
3.005878329277038574e-01,1.104074344038963318e-01,1.814912557601928711e-01,-2.922731637954711914e-01,1.601649969816207886e-01,1.391641348600387573e-01,-2.640392482280731201e-01,-2.290695607662200928e-01,2.964412793517112732e-02,-1.536882519721984863e-01
1.039467602968215942e-01,-1.211014017462730408e-01,4.887042194604873657e-02,1.440734863281250000e-01,-5.903662741184234619e-02,1.734037548303604126e-01,-1.596680283546447754e-01,-6.153531745076179504e-02,-6.552621722221374512e-02,-2.709392309188842773e-01
-2.811062633991241455e-01,-2.136493800207972527e-03,1.843586266040802002e-01,7.658618502318859100e-03,8.952423185110092163e-02,1.401241719722747803e-01,9.663104265928268433e-02,1.567879915237426758e-01,1.893969774246215820e-01,-1.192490756511688232e-01
-5.032346397638320923e-02,1.843122839927673340e-01,-1.554983705282211304e-01,-1.959621161222457886e-01,6.063548475503921509e-02,1.248548850417137146e-01,-2.370567433536052704e-02,1.983890533447265625e-01,-1.021735593676567078e-01,-9.297244250774383545e-03
2.482104748487472534e-01,3.103998005390167236e-01,-2.536285221576690674e-01,7.737372070550918579e-02,1.699988991022109985e-01,1.381348818540573120e-01,-2.738982439041137695e-01,2.883711159229278564e-01,-2.080989032983779907e-01,-1.365168839693069458e-01
-3.042333126068115234e-01,-2.278298139572143555e-01,1.414317041635513306e-01,1.537082344293594360e-01,2.779479324817657471e-01,-1.912627220153808594e-01,-2.254715412855148315e-01,4.222446680068969727e-02,1.526847183704376221e-01,-6.112366169691085815e-02
-1.603540480136871338e-01,2.220531553030014038e-01,-3.006985783576965332e-01,-2.720926403999328613e-01,-2.187010794878005981e-01,1.877910345792770386e-01,1.996820718050003052e-01,1.508249938488006592e-01,1.531405597925186157e-01,5.253082886338233948e-02
###
4.673743620514869690e-02,-8.123678714036941528e-02,8.236446231603622437e-02,1.978376321494579315e-02,2.879631817340850830e-01,-3.923774883151054382e-02,-1.737134754657745361e-01,1.781312972307205200e-01,2.043743729591369629e-01,-9.356794506311416626e-02
-2.186436653137207031e-01,-1.031160280108451843e-01,-6.615120172500610352e-02,2.273698300123214722e-01,1.995961219072341919e-01,3.128111064434051514e-01,-1.828875243663787842e-01,1.187230832874774933e-02,2.937896847724914551e-01,-2.356549799442291260e-01
-1.598232984542846680e-01,1.450165640562772751e-02,2.552221715450286865e-01,-1.239775940775871277e-01,8.004505932331085205e-02,-2.977756559848785400e-01,1.628537848591804504e-02,-9.548571705818176270e-02,1.104559153318405151e-01,3.191022574901580811e-02
1.266797035932540894e-01,-3.074138760566711426e-01,5.718893185257911682e-02,2.181672751903533936e-01,7.578364759683609009e-02,4.836444929242134094e-02,2.045835107564926147e-01,2.936464175581932068e-02,5.647690594196319580e-02,-1.588666141033172607e-01
2.743621468544006348e-01,-1.855608671903610229e-01,-1.813470274209976196e-01,-9.182877838611602783e-02,1.765593886375427246e-02,7.538277655839920044e-02,1.344663351774215698e-01,-2.637329399585723877e-01,-2.321211993694305420e-01,-1.281196624040603638e-01
-2.806017994880676270e-01,2.713102698326110840e-01,-1.438592560589313507e-02,1.781053990125656128e-01,-1.263210475444793701e-01,-1.887206435203552246e-01,-2.953698635101318359e-01,-5.392875894904136658e-02,-1.769375354051589966e-01,-1.307908892631530762e-01
2.973306179046630859e-01,2.204806506633758545e-01,-2.823771536350250244e-01,4.676046781241893768e-03,2.072747945785522461e-01,2.508051395416259766e-01,-2.752902805805206299e-01,-2.462450116872787476e-01,1.687265783548355103e-01,-2.506672739982604980e-01
-1.026513352990150452e-01,-6.875148415565490723e-02,-3.022436499595642090e-01,-7.596006989479064941e-02,-2.544054202735424042e-02,1.462551802396774292e-01,9.342737495899200439e-02,3.107416629791259766e-01,-1.726330369710922241e-01,3.118923008441925049e-01
2.246736884117126465e-01,4.108827188611030579e-02,-2.207362800836563110e-01,-8.143740892410278320e-02,-9.040167927742004395e-02,-3.029308319091796875e-01,-1.611022949218750000e-01,1.539405733346939087e-01,-2.892227470874786377e-01,-3.082789853215217590e-02
-1.140687838196754456e-01,-1.101205646991729736e-01,-2.176395952701568604e-01,-4.693602398037910461e-02,-2.941310405731201172e-01,-3.064991533756256104e-01,1.394372880458831787e-01,2.300315946340560913e-01,3.072451353073120117e-01,2.323053032159805298e-01
###
2.301425039768218994e-01,1.998802125453948975e-01,-2.998243570327758789e-01,-3.009615652263164520e-02,1.510418355464935303e-01,-3.124739527702331543e-01,2.332798987627029419e-01,-2.013187855482101440e-01,3.133533895015716553e-01,1.311963200569152832e-01
2.043628692626953125e-01,-1.360603272914886475e-01,1.756635159254074097e-01,-1.862533241510391235e-01,-2.961195707321166992e-01,1.478589028120040894e-01,2.343422025442123413e-01,9.587407857179641724e-02,1.375785097479820251e-02,1.099083293229341507e-02
2.772666811943054199e-01,2.576956152915954590e-01,-9.353186935186386108e-03,2.658161520957946777e-01,2.350618839263916016e-01,2.315555512905120850e-01,2.530671656131744385e-02,6.411490589380264282e-02,1.411543935537338257e-01,-4.488909989595413208e-02
-2.573303878307342529e-01,1.050905361771583557e-01,-5.394828692078590393e-02,1.921227127313613892e-01,-6.920351088047027588e-02,-1.177675724029541016e-01,-1.440602242946624756e-01,2.183196544647216797e-01,-1.615363359451293945e-01,1.408902108669281006e-01
1.507326029241085052e-03,-1.762280315160751343e-01,-2.790502905845642090e-01,1.125423833727836609e-01,2.500449679791927338e-02,2.643279135227203369e-01,-2.574396133422851562e-01,-2.772217057645320892e-02,2.226087003946304321e-01,1.596961170434951782e-01
3.938989341259002686e-02,-3.904417529702186584e-02,-6.669332087039947510e-02,-1.611488461494445801e-01,1.413607597351074219e-01,-2.412973195314407349e-01,-2.304219156503677368e-01,-8.739840984344482422e-02,-1.344447396695613861e-02,2.774788737297058105e-01
-3.102780878543853760e-01,3.081265687942504883e-01,1.624591797590255737e-01,-2.296019196510314941e-01,3.143321573734283447e-01,1.561636477708816528e-01,3.136713206768035889e-01,1.436726897954940796e-01,-3.156038820743560791e-01,2.698486149311065674e-01
-1.216395720839500427e-01,-8.249810338020324707e-02,-3.057667315006256104e-01,6.560104340314865112e-02,-2.050811611115932465e-02,-2.805021218955516815e-02,-2.477100491523742676e-01,1.776112616062164307e-01,-2.048649191856384277e-01,-2.920789122581481934e-01
2.951450943946838379e-01,-1.661588549613952637e-01,8.828180283308029175e-02,-1.348011940717697144e-01,-6.570833176374435425e-02,1.750221699476242065e-01,2.083096355199813843e-01,-1.077824607491493225e-01,1.706757098436355591e-01,-2.837372720241546631e-01
1.326895803213119507e-01,-2.284293919801712036e-01,1.012969464063644409e-01,2.730746865272521973e-01,2.471565306186676025e-01,-1.922418773174285889e-01,-2.487778961658477783e-01,1.324229985475540161e-01,-2.297781594097614288e-02,2.090120464563369751e-01
###
-2.543913125991821289e-01,1.720469444990158081e-01,-1.821617335081100464e-01,-1.247987523674964905e-01,-1.290847510099411011e-01,2.721324563026428223e-01,1.213903501629829407e-01,2.274692058563232422e-02,-9.795474261045455933e-02,2.964791357517242432e-01
-2.453456372022628784e-01,6.436434923671185970e-04,2.063961476087570190e-01,-2.870932519435882568e-01,1.942454129457473755e-01,2.689822912216186523e-01,7.744621485471725464e-02,2.327228039503097534e-01,-2.524902820587158203e-01,-2.204185575246810913e-01
###
