1.138290166854858398e-01,-4.813420772552490234e-02,-3.313055634498596191e-01,6.512814760208129883e-02,1.578295230865478516e-01,-3.723639249801635742e-02,7.855355739593505859e-03,-1.975036263465881348e-01,4.080745577812194824e-01,-6.119036674499511719e-02
-2.697088718414306641e-01,-1.640514731407165527e-01,-1.795755922794342041e-01,-2.379659414291381836e-01,7.192182540893554688e-02,-2.545899748802185059e-01,-1.694136857986450195e-01,-2.774670422077178955e-01,-5.837206169962882996e-02,-2.864050269126892090e-01
2.150756120681762695e-01,8.941411972045898438e-02,-8.511810004711151123e-02,6.288898736238479614e-02,1.155717745423316956e-01,-2.326860576868057251e-01,1.719324290752410889e-01,-1.593254655599594116e-01,-1.593518555164337158e-01,-2.273389995098114014e-01
-1.491167098283767700e-01,-4.743257537484169006e-02,-2.072990834712982178e-01,-1.627221107482910156e-01,-1.787212193012237549e-01,2.196157164871692657e-02,1.999043077230453491e-01,-3.134599030017852783e-01,-1.292318403720855713e-01,2.552229464054107666e-01
1.518857181072235107e-01,6.735555082559585571e-02,-1.155641227960586548e-01,1.413057893514633179e-01,7.498819846659898758e-03,-2.250423282384872437e-01,-3.293860703706741333e-02,1.771726459264755249e-01,1.917757540941238403e-01,1.710832118988037109e-01
-7.709705829620361328e-02,4.127630591392517090e-02,2.452594935894012451e-01,2.013928890228271484e-01,-2.048120051622390747e-01,-2.446581870317459106e-01,-1.386041343212127686e-01,2.139112502336502075e-01,1.139149069786071777e-01,9.635113924741744995e-02
-1.972891241312026978e-01,2.106737047433853149e-01
