-1.500963792204856873e-02,1.139270048588514328e-02,-6.253208848647773266e-04,2.732798643410205841e-02,2.088987082242965698e-02,-1.494175288826227188e-02,3.500019013881683350e-02,5.705744493752717972e-03,-1.830638386309146881e-02,2.672115899622440338e-02,-3.963666502386331558e-03,1.292364113032817841e-02,-2.158113929908722639e-04,-3.107020445168018341e-02,2.726635895669460297e-02,-3.048773389309644699e-03,-1.358422730118036270e-02,-7.007756736129522324e-03,2.741345390677452087e-02,-4.916536156088113785e-03,-2.128831110894680023e-02,-1.069971080869436264e-02,6.227655336260795593e-03,7.643776480108499527e-03,7.604897487908601761e-03,-2.331332676112651825e-02,-2.738647535443305969e-02,-3.066326957195997238e-03,2.980770543217658997e-02,-3.333675116300582886e-02,8.240303955972194672e-03,-5.282679107040166855e-03,-1.392787788063287735e-02,-2.336271852254867554e-02,-1.027805078774690628e-02,3.158223256468772888e-02,3.024331666529178619e-02,-1.760420203208923340e-02,-2.595520205795764923e-02,-2.059244737029075623e-02,-2.831420488655567169e-02,-1.632113568484783173e-02,-1.409132219851016998e-02,-2.464296855032444000e-02,1.685819239355623722e-03,3.549062088131904602e-02,-2.927593328058719635e-02,-3.023054450750350952e-02,-2.513205260038375854e-02,-2.919505909085273743e-02,1.801734790205955505e-02,1.110167242586612701e-02,2.247180382255464792e-04,3.238652646541595459e-02,-2.635131217539310455e-02,-2.775932289659976959e-02,-2.410904504358768463e-02,-3.159799845889210701e-03,3.147105127573013306e-02,-3.153147548437118530e-02,-2.364550903439521790e-02,3.522736579179763794e-02,1.801621913909912109e-02,-1.692353002727031708e-02,2.414154261350631714e-02,-3.069616854190826416e-02,-6.515992432832717896e-02,-2.416025614365935326e-03,7.865860126912593842e-03,-3.477116348221898079e-03,-5.337645485997200012e-02,-1.540422439575195312e-02,-5.245480313897132874e-02,-3.447247669100761414e-02,-1.827565394341945648e-02,-4.198717698454856873e-02,2.544803358614444733e-02,-1.278892252594232559e-02,-3.534351242706179619e-03,2.475931867957115173e-02,6.195473019033670425e-03,-3.437323123216629028e-02,-1.998741365969181061e-02,-3.423018008470535278e-02,3.367490693926811218e-02,-2.396848052740097046e-02,-3.724695742130279541e-02,5.205764900892972946e-03,-1.808017608709633350e-03,9.124258533120155334e-03,-1.549965608865022659e-02,8.110604248940944672e-03,-2.375507168471813202e-02,-1.151927397586405277e-03,-1.414850633591413498e-02,-3.645408898591995239e-03,-1.535765919834375381e-02,-4.039992019534111023e-02,-3.040658310055732727e-02,-6.047610659152269363e-04,-2.416555583477020264e-02,9.418178349733352661e-03,-5.271319672465324402e-02,-5.834009870886802673e-02,-1.443581562489271164e-02,8.907180279493331909e-03,4.936949815601110458e-03,2.941060625016689301e-02,-3.437660634517669678e-02,4.541988950222730637e-03,1.986915804445743561e-02,3.119677864015102386e-02,2.896844223141670227e-02,2.812734805047512054e-03,1.642910204827785492e-02,2.490382455289363861e-02,-3.441413491964340210e-02,-2.426881343126296997e-02,-1.834482513368129730e-02,-6.855291314423084259e-03,-7.821671664714813232e-03,-3.330975770950317383e-02,1.250217482447624207e-02,-5.345071107149124146e-02,-7.895858585834503174e-02,-1.642333529889583588e-02,-6.079136952757835388e-02,-6.017044931650161743e-02,-6.475368048995733261e-03,-1.362723018974065781e-02,-1.949371397495269775e-02,-3.006568178534507751e-02,-1.256603375077247620e-02,-1.462485827505588531e-02,-4.376482218503952026e-02,1.525273197330534458e-03,2.218682318925857544e-02,1.789983734488487244e-02,1.589924097061157227e-02,-1.513098459690809250e-02,7.630591280758380890e-03,-2.598050422966480255e-02,6.361774634569883347e-03,-1.935429312288761139e-02,-4.248687624931335449e-02,-2.203065156936645508e-02,1.519095525145530701e-02,9.836207143962383270e-03,8.029219508171081543e-02,2.970401383936405182e-02,-9.036347037181258202e-04,1.332537680864334106e-01,7.470604032278060913e-02,5.690738558769226074e-02,6.605089455842971802e-02,5.345419514924287796e-03,2.633884176611900330e-02,-7.861742051318287849e-04,3.050597943365573883e-02,-4.073216393589973450e-02,-5.270355194807052612e-02,-3.906211629509925842e-02,-3.734148666262626648e-02,-5.773305892944335938e-03,-3.315837308764457703e-02,1.368601433932781219e-02,-1.423951517790555954e-02,-1.029300317168235779e-02,8.841221220791339874e-03,-2.420500479638576508e-02,7.046733796596527100e-02,-1.657301560044288635e-02,-5.822400748729705811e-02,1.329150237143039703e-02,-2.359275519847869873e-02,-5.618136748671531677e-02,-7.220689207315444946e-02,8.140664547681808472e-02,5.849133431911468506e-02,2.983992919325828552e-02,3.534718602895736694e-02,4.141190275549888611e-02,6.732985842972993851e-03,6.386593729257583618e-02,1.143973506987094879e-02,4.358799755573272705e-02,2.970424853265285492e-02,-1.068969443440437317e-02,1.973122998606413603e-04,3.898038296028971672e-03,1.254787575453519821e-02,-1.123030204325914383e-02,-5.317468568682670593e-02,6.640291307121515274e-03,-1.569965155795216560e-03,2.598513476550579071e-02,-2.493353560566902161e-02,2.290788888931274414e-01,4.328846558928489685e-02,8.892624638974666595e-03,-8.886787295341491699e-02,3.008579462766647339e-02,7.816731231287121773e-04,-6.399261206388473511e-02,6.766677834093570709e-03,2.002336084842681885e-02,4.722760617733001709e-02,4.614245891571044922e-02,6.421691179275512695e-02,3.218439593911170959e-02,-7.248390465974807739e-03,-1.237358991056680679e-02,4.474191367626190186e-02,1.765866763889789581e-02,2.234950475394725800e-02,1.957458071410655975e-02,3.158645238727331161e-03,2.703104168176651001e-03,-3.573345392942428589e-02,-2.345777675509452820e-02,-4.570670798420906067e-02,2.169621735811233521e-02,3.460844233632087708e-02,-6.894567515701055527e-03,2.492357045412063599e-02,9.710773825645446777e-02,-2.045135572552680969e-02,5.018760450184345245e-03,-1.363084651529788971e-02,-1.954635232686996460e-02,-3.103682212531566620e-02,-2.306342823430895805e-03,3.847270458936691284e-02,-2.758273296058177948e-02,1.342401653528213501e-02,4.986726865172386169e-02,4.326866567134857178e-02,5.615421570837497711e-03,4.346478357911109924e-02,-1.138033904135227203e-02,2.614460140466690063e-02,7.600216660648584366e-03,6.173666100949048996e-03,4.022474586963653564e-02,-3.179054474458098412e-03,9.526432491838932037e-03,-6.597797852009534836e-03,3.191655874252319336e-02,-3.856179118156433105e-02,2.359217498451471329e-03,-6.585951428860425949e-03,4.781399853527545929e-03,3.450665622949600220e-02,6.640221923589706421e-03,1.410301309078931808e-02,-1.904011890292167664e-02,1.602850854396820068e-02,-1.998293958604335785e-02,-2.406220510601997375e-02,1.271182321943342686e-03,-1.113572530448436737e-02,9.175946936011314392e-03,-2.537505514919757843e-02,2.568208798766136169e-02,5.421481281518936157e-02,-3.450282663106918335e-02,1.456427853554487228e-02,3.260941803455352783e-02,-2.378392592072486877e-02,4.061276838183403015e-02,3.881798684597015381e-02,-3.996574319899082184e-03,4.340204223990440369e-02,2.864056080579757690e-02,4.042174294590950012e-02,5.623491480946540833e-03,-4.140583425760269165e-02,-1.777106709778308868e-02,3.054946102201938629e-02,3.574210032820701599e-02,2.270266413688659668e-02,1.563701895065605640e-03,1.882998913060873747e-04,-1.973639614880084991e-02,-2.710632793605327606e-02,1.462005358189344406e-02,-9.972113184630870819e-03,3.624633327126502991e-02,2.472031861543655396e-02,3.731976822018623352e-02,3.280130401253700256e-02,-4.306474234908819199e-03,-4.664489999413490295e-02,2.875575236976146698e-02,-1.713562384247779846e-02,-9.862971492111682892e-03,1.806742325425148010e-02,-1.494595501571893692e-02,2.657115831971168518e-02,3.490344807505607605e-02,6.266311742365360260e-03,-1.640719734132289886e-02,-6.134691182523965836e-03,-5.240897648036479950e-03,8.242802694439888000e-03,2.453673258423805237e-02,2.373507805168628693e-02,-1.797074079513549805e-02,1.365543343126773834e-02,1.468573603779077530e-02,4.089767485857009888e-02,5.573910102248191833e-02,6.862216629087924957e-03,3.061933256685733795e-02,2.960917539894580841e-02,1.813318394124507904e-02,5.380544345825910568e-03,4.603971913456916809e-02,4.644734784960746765e-02,-1.704119332134723663e-02,4.583495669066905975e-03,-2.877868525683879852e-02,-1.419857051223516464e-02,-5.204917117953300476e-02,-1.592052169144153595e-02,3.439819440245628357e-02,2.834136784076690674e-02,1.075105741620063782e-03,9.511641226708889008e-03,1.130122039467096329e-02,3.450486809015274048e-02,3.758363425731658936e-02,-9.261324070394039154e-03,-3.005010820925235748e-02,-3.991395235061645508e-03,-7.526592817157506943e-03,1.813233830034732819e-02,5.270109325647354126e-02,8.365733176469802856e-02,1.368530932813882828e-02,-2.544606104493141174e-02,3.620487451553344727e-02,1.899017952382564545e-02,-1.669693551957607269e-02,2.684250660240650177e-02,-2.819241583347320557e-02,6.085124984383583069e-02,2.541573531925678253e-02,-3.774382174015045166e-02,-3.663258254528045654e-02,-8.724165707826614380e-02,-3.630856052041053772e-03,-7.578930308227427304e-06,3.299921378493309021e-02,1.782615855336189270e-02,3.899324312806129456e-02,3.580549359321594238e-02,-4.841893678531050682e-04,1.151878573000431061e-02,-5.508323200047016144e-03,2.691376954317092896e-02,4.779718071222305298e-02,-1.566920429468154907e-02,1.044302340596914291e-02,-7.453287392854690552e-02,1.558948028832674026e-02,7.658877223730087280e-02,-5.734089063480496407e-04,-6.256259977817535400e-02,2.139303460717201233e-02,7.675986853428184986e-05,1.788800768554210663e-02,2.444031462073326111e-02,1.352461799979209900e-02,-9.984967764467000961e-04,3.276326460763812065e-03,-2.112549729645252228e-02,-1.646033301949501038e-02,-6.362588703632354736e-02,-1.495995093137025833e-02,-2.713450044393539429e-02,-2.359555847942829132e-02,4.604041948914527893e-02,1.562179438769817352e-02,6.713039241731166840e-03,1.370638236403465271e-02,3.143225610256195068e-02,5.907701328396797180e-03,-5.000692792236804962e-03,8.100527338683605194e-03,-2.080240845680236816e-02,1.318394299596548080e-02,-8.202055469155311584e-03,-3.001430537551641464e-03,1.766694709658622742e-02,-4.974594339728355408e-02,-2.604738995432853699e-02,-4.672885686159133911e-02,1.064225472509860992e-02,-4.253583028912544250e-03,6.324984598904848099e-03,-2.627081703394651413e-03,2.064200490713119507e-02,1.393020711839199066e-02,3.826601058244705200e-02,-9.797630831599235535e-03,-6.126103922724723816e-02,7.089815102517604828e-03,-3.315708413720130920e-02,-4.215925559401512146e-02,5.264520272612571716e-02,-4.870888311415910721e-03,-8.283760398626327515e-03,1.468740217387676239e-02,4.748503211885690689e-03,1.001963112503290176e-02,-2.269045822322368622e-02,2.644791081547737122e-02,2.402864769101142883e-02,3.503817319869995117e-02,8.230328559875488281e-03,-8.378624916076660156e-03,-5.271460488438606262e-02,-1.737377978861331940e-02,2.028042636811733246e-02,1.029404957080259919e-04,-1.408721669577062130e-03,-9.630659595131874084e-03,-4.102661274373531342e-03,3.182114660739898682e-02,2.519404143095016479e-02,1.788229495286941528e-02,-2.153818495571613312e-02,4.228794202208518982e-02,2.396302297711372375e-03,3.699099877849221230e-03,-7.687681820243597031e-03,3.763188794255256653e-02,-1.408518105745315552e-02,5.190975032746791840e-03,-6.383560597896575928e-02,2.279731072485446930e-02,2.242094650864601135e-02,3.575767949223518372e-02,2.925272285938262939e-02,4.254840686917304993e-02,1.566162519156932831e-02,-2.106308937072753906e-03,4.002025723457336426e-02,1.905748434364795685e-02,-4.569645598530769348e-02,4.191765189170837402e-02,-1.060835272073745728e-02,-1.172117702662944794e-02,1.822969503700733185e-02,2.659108676016330719e-02,3.850344568490982056e-02,3.673399984836578369e-02,1.390934735536575317e-02,4.336729762144386768e-04,4.653417691588401794e-02,1.021239208057522774e-03,-1.207758020609617233e-02,1.677634380757808685e-02,-5.636566784232854843e-03,2.398061752319335938e-02,-1.079095061868429184e-02,-6.527704745531082153e-02,-6.784046068787574768e-03,3.821222484111785889e-02,-9.849197231233119965e-04,4.261380527168512344e-03,5.163976456969976425e-03,-1.271176040172576904e-01,-1.938358880579471588e-02,1.773145422339439392e-02,-6.133147981017827988e-04,-4.745135549455881119e-03,2.572041749954223633e-02,1.294645294547080994e-02,-1.625723391771316528e-02,-5.246863514184951782e-02,-3.842075541615486145e-02,-1.817212812602519989e-02,1.863628625869750977e-02,1.677738619036972523e-03,-6.696770433336496353e-04,-1.405187789350748062e-02,-3.426385228522121906e-04,4.748304374516010284e-03,1.749069429934024811e-02,-3.837522119283676147e-02,-4.969841800630092621e-03,3.453463688492774963e-02,-3.161904960870742798e-02,-1.114866510033607483e-01,-9.359841234982013702e-03,-3.516052290797233582e-02,4.884907044470310211e-03,-3.389546880498528481e-03,3.470315411686897278e-02,7.911528460681438446e-03,1.064673662185668945e-01,-1.967111043632030487e-02,4.618365764617919922e-01,2.834588475525379181e-02,1.655204221606254578e-02,2.031752839684486389e-02,3.594211116433143616e-02,5.594936758279800415e-02,-2.604876179248094559e-03,1.372484397143125534e-02,8.304415270686149597e-03,-2.952609769999980927e-02,-1.805241405963897705e-02,-1.120726764202117920e-02,2.688679657876491547e-02,-9.541735053062438965e-03,-3.182093426585197449e-02,-1.637380011379718781e-02,-2.359506860375404358e-02,2.810439467430114746e-02,-2.166515216231346130e-03,-2.996397390961647034e-02,-1.452443283051252365e-02,1.507023908197879791e-02,8.539170026779174805e-03,5.124246329069137573e-02,4.035716503858566284e-02,-6.633215118199586868e-03,1.091413870453834534e-01,-1.149581186473369598e-02,-2.279537543654441833e-02,6.029810756444931030e-02,2.671997062861919403e-02,1.515997052192687988e-01,3.467702865600585938e-02,-1.258590444922447205e-02,1.100350171327590942e-02,7.205193396657705307e-03,2.289979532361030579e-02,-2.361281961202621460e-02,6.511169020086526871e-03,-1.967502199113368988e-02,7.814276032149791718e-03,1.964614726603031158e-03,2.144173346459865570e-02,-2.111154608428478241e-02,-6.414495408535003662e-03,1.289604988414794207e-04,7.825711742043495178e-03,-3.125315532088279724e-02,5.554943811148405075e-03,-3.892471641302108765e-02,3.271762980148196220e-04,-2.898970432579517365e-02,3.025456517934799194e-02,-5.588409304618835449e-02,2.470601908862590790e-02,-2.806458622217178345e-02,2.375884726643562317e-02,-5.090526770800352097e-03,4.000985622406005859e-01,-3.566072508692741394e-02,-6.789287924766540527e-02,-3.190812468528747559e-02,-4.465706273913383484e-02,1.713227853178977966e-02,6.505618337541818619e-03,3.208554908633232117e-02,9.482369758188724518e-03,-5.134728271514177322e-03,2.593168057501316071e-02,2.423335798084735870e-02,9.751894976943731308e-04,-3.901778906583786011e-02,-7.503039389848709106e-02,-2.425023540854454041e-02,1.059819944202899933e-02,9.119945578277111053e-03,-4.968767985701560974e-02,-1.946281455457210541e-02,5.721148103475570679e-03,-5.851051211357116699e-02,-3.052264079451560974e-02,-4.347383230924606323e-02,3.461344540119171143e-02,3.167832642793655396e-02,2.332659997045993805e-02,-1.722282171249389648e-02,-1.010808572173118591e-01,-3.025729954242706299e-02,-1.060717459768056870e-02,-1.237623207271099091e-02,-2.435897290706634521e-02,-1.834062422858551145e-04,-2.640108950436115265e-02,-3.843547776341438293e-02,-6.413476075977087021e-03,1.245643571019172668e-02,-2.134362235665321350e-02,-1.171273086220026016e-02,-3.622760251164436340e-02,-3.596900403499603271e-02,-2.482239715754985809e-02,-4.670395329594612122e-02,1.252692192792892456e-02,-5.701044201850891113e-02,-1.264326088130474091e-02,-2.101793885231018066e-02,-4.667187109589576721e-02,4.958127625286579132e-03,-4.954436793923377991e-02,-1.464053406380116940e-03,-3.084868937730789185e-02,2.277506282553076744e-03,-7.536950986832380295e-03,-1.202702336013317108e-02,-1.032169833779335022e-01,-1.300310250371694565e-02,-3.349193604663014412e-03,2.227575331926345825e-02,2.084584720432758331e-02,2.609373070299625397e-02,-2.001239731907844543e-02,1.249666046351194382e-02,6.206872873008251190e-03,-2.453584410250186920e-02,1.913192309439182281e-02,8.308985270559787750e-04,-1.583702862262725830e-03,-2.551210857927799225e-02,-2.445542952045798302e-03,1.356916315853595734e-02,-2.862728387117385864e-02,-9.799216873943805695e-03,-1.449028961360454559e-02,-3.559776023030281067e-02,1.684699393808841705e-02,1.325638312846422195e-02,1.281040720641613007e-02,-5.042731296271085739e-03,2.862651459872722626e-02,9.630297310650348663e-03,-3.555550053715705872e-02,-2.271362754981964827e-04,8.767639286816120148e-03,-9.246362373232841492e-03,4.031706601381301880e-02,2.277100831270217896e-02,-2.001606859266757965e-02,1.271070633083581924e-02,-1.443796884268522263e-02,-3.766658902168273926e-02,-3.718267893418669701e-03,2.674680761992931366e-02,-1.856936328113079071e-02,-1.181028783321380615e-02,3.065639361739158630e-02,1.326020155102014542e-02,-1.940661109983921051e-02,-4.142094030976295471e-02,-1.779308915138244629e-02,-2.932359091937541962e-02,-4.059832170605659485e-02,-4.986858926713466644e-03,-1.739384979009628296e-02,-7.017757743597030640e-03,3.590687364339828491e-02,-3.731988836079835892e-03,-8.129168301820755005e-02,1.172409392893314362e-02,1.115533802658319473e-02,-1.471569389104843140e-02,5.264947190880775452e-03,2.447372535243630409e-03,2.536159381270408630e-02,8.535380475223064423e-03,-1.362687349319458008e-02,2.154415659606456757e-02,4.417442530393600464e-02,-2.471528388559818268e-02,1.980477944016456604e-02,-3.262695670127868652e-02,1.219250261783599854e-02,3.999012708663940430e-02,3.380304574966430664e-02,5.186942964792251587e-02,1.356580015271902084e-02,9.056620299816131592e-03,-6.542198359966278076e-02,-2.345130592584609985e-02,1.866271346807479858e-02,-1.723659932613372803e-01,2.150222193449735641e-03,-7.850944995880126953e-03,-1.986905932426452637e-02,-2.481178790330886841e-01,-1.762401312589645386e-01,1.648162119090557098e-02,2.271142788231372833e-02,-2.335203252732753754e-02,-2.912231953814625740e-03,1.314141880720853806e-02,2.856215089559555054e-02,2.332989685237407684e-02,3.132499009370803833e-02,3.775364160537719727e-02,4.764692857861518860e-03,-7.818015292286872864e-03,7.756735384464263916e-02,4.763453826308250427e-02,1.132837031036615372e-03,8.095685916487127542e-05,-2.902262657880783081e-02,5.602125450968742371e-02,3.328092396259307861e-02,3.502675145864486694e-02,4.147768393158912659e-02,5.501798912882804871e-02,-8.869157172739505768e-03,5.296114366501569748e-03,8.675424382090568542e-03,2.294522710144519806e-02,2.342686988413333893e-02,3.020012937486171722e-02,3.436828777194023132e-02,-3.135003149509429932e-02,-2.203943207859992981e-02,-2.846809849143028259e-02,2.029442414641380310e-02,1.362226717174053192e-02,1.557143311947584152e-02,1.246503647416830063e-02,2.219949290156364441e-02,1.927821338176727295e-02,-1.532320980913937092e-03,2.178641408681869507e-02,-8.617576211690902710e-03,-1.802098937332630157e-02,3.703201562166213989e-02,6.591867655515670776e-02,1.796056143939495087e-02,-3.644713014364242554e-02,-2.899791114032268524e-02,3.679246641695499420e-03,2.063418738543987274e-02,2.061798935756087303e-03,3.332637250423431396e-02,-1.360369287431240082e-02,3.205591812729835510e-02,-2.655743854120373726e-03,-7.609384600073099136e-03,-5.527912173420190811e-03,-3.417315706610679626e-02,7.991808466613292694e-03,-1.369424909353256226e-02,3.382090479135513306e-02,-1.485705492086708546e-03,-2.146430686116218567e-02,2.583963796496391296e-02,2.959020622074604034e-02,2.600062265992164612e-02,-1.365359593182802200e-02,8.058033883571624756e-03,2.492973580956459045e-02,8.110997825860977173e-02,2.795034833252429962e-02,-9.981872513890266418e-03,8.331048302352428436e-03,-1.932160742580890656e-02,-1.488956995308399200e-02,-4.057614598423242569e-03,-1.992452330887317657e-02,3.461008891463279724e-02,4.172061383724212646e-02,-2.811849489808082581e-02,-1.238220464438199997e-02,2.911620773375034332e-02,4.041176289319992065e-02,2.033447474241256714e-02,3.156231716275215149e-02,-2.506961300969123840e-02,2.595957368612289429e-02
-3.021046146750450134e-02,2.005505561828613281e-02,-6.789233535528182983e-03,-9.768515825271606445e-03,1.615403965115547180e-02,-1.607026904821395874e-02,-1.675099134445190430e-02,-4.393207374960184097e-03,3.446781262755393982e-02,-3.098934516310691833e-02,3.516797348856925964e-02,-1.917243935167789459e-02,4.324955807533115149e-04,1.645925641059875488e-02,-2.800822490826249123e-03,-9.871083311736583710e-04,3.136119805276393890e-03,-2.688939869403839111e-02,-8.900825865566730499e-03,3.020495362579822540e-02,1.562697999179363251e-02,-2.212012000381946564e-02,-2.099508605897426605e-02,1.676568016409873962e-02,-1.667983271181583405e-02,-2.641560509800910950e-02,-7.255503442138433456e-04,3.258509328588843346e-03,1.368936989456415176e-02,-1.845775917172431946e-02,1.597238471731543541e-03,-2.116816584020853043e-03,2.610206231474876404e-02,3.165862523019313812e-03,2.753861993551254272e-02,-3.083203174173831940e-02,-1.161130424588918686e-02,-2.136367186903953552e-02,2.763901650905609131e-02,-7.849979214370250702e-03,1.603455282747745514e-02,3.266368759796023369e-03,-2.316350303590297699e-02,-1.165629737079143524e-02,2.007976174354553223e-02,2.370268292725086212e-02,2.049653604626655579e-02,1.119657978415489197e-02,-3.227582573890686035e-02,-2.686292119324207306e-02,3.334024176001548767e-02,-6.958940532058477402e-03,-2.598657086491584778e-02,-9.911525063216686249e-03,5.280980374664068222e-03,-1.936574652791023254e-02,-2.210371941328048706e-02,-1.117820013314485550e-02,3.232885152101516724e-02,5.093600135296583176e-03,-1.374825090169906616e-02,-3.083429671823978424e-02,-9.817609097808599472e-04,-2.896928414702415466e-02,1.634513586759567261e-02,1.538297161459922791e-02,-2.722568064928054810e-02,-3.309275954961776733e-02,-3.502507880330085754e-02,-3.296217322349548340e-02,1.267285924404859543e-02,2.250102721154689789e-02,6.006621755659580231e-03,2.152033336460590363e-02,-1.300287991762161255e-02,-1.762484014034271240e-02,-6.668152287602424622e-03,5.436752690002322197e-04,-2.114390581846237183e-02,-9.608775377273559570e-03,-9.324470534920692444e-03,-1.912342733703553677e-03,-1.085338927805423737e-02,-3.427785634994506836e-02,2.455212920904159546e-02,-9.248107671737670898e-03,7.028243504464626312e-03,1.652175746858119965e-02,3.500396758317947388e-02,3.559770807623863220e-02,2.346074208617210388e-02,2.756223268806934357e-02,1.972950994968414307e-03,-3.880517091602087021e-03,-1.470959931612014771e-02,-1.499489322304725647e-02,-3.252080827951431274e-02,-3.100297413766384125e-03,-1.989428512752056122e-02,-2.824862487614154816e-02,-3.452941030263900757e-02,-2.097419090569019318e-02,-3.335211053490638733e-02,2.559824660420417786e-02,-3.075396083295345306e-02,2.710823714733123779e-02,1.669132709503173828e-02,2.092415280640125275e-02,1.265785540454089642e-03,-1.871176809072494507e-02,2.048675157129764557e-02,2.809296920895576477e-02,-2.417173609137535095e-02,1.442555920220911503e-03,-2.683961577713489532e-02,-3.564979415386915207e-03,6.849034689366817474e-03,2.349924668669700623e-02,-3.812927007675170898e-02,1.603249274194240570e-02,8.051945827901363373e-03,-3.501624614000320435e-02,-1.078085694462060928e-02,2.566742151975631714e-02,9.376060217618942261e-03,-1.448787655681371689e-02,-2.486060000956058502e-02,-1.898587495088577271e-02,-2.104977332055568695e-02,3.410575678572058678e-03,2.621208876371383667e-02,3.873380832374095917e-03,-1.579692214727401733e-02,7.394991815090179443e-03,-3.339842334389686584e-02,8.489201776683330536e-03,2.147324569523334503e-02,-9.534759446978569031e-03,-2.140662632882595062e-02,3.013500198721885681e-02,-4.267160780727863312e-03,-7.516146171838045120e-03,1.911565661430358887e-02,1.247140299528837204e-02,-2.153134718537330627e-02,-1.355136465281248093e-02,-2.973288670182228088e-02,-6.086866371333599091e-03,2.409596368670463562e-02,-2.052823267877101898e-02,2.024921774864196777e-02,-1.742041436955332756e-03,-1.990736089646816254e-02,-1.836358197033405304e-02,-3.486528620123863220e-02,-3.221139311790466309e-02,-4.014563933014869690e-02,1.875751651823520660e-02,-2.274097787449136376e-04,-1.080641523003578186e-02,-3.885736688971519470e-02,-2.183988504111766815e-02,-3.465604037046432495e-02,-3.848596010357141495e-03,-1.360752247273921967e-02,1.380489487200975418e-02,1.458930037915706635e-02,-2.824902720749378204e-02,1.354669779539108276e-02,9.032177738845348358e-03,-2.660999819636344910e-02,-2.948411554098129272e-02,-5.575636867433786392e-03,-3.622838109731674194e-02,2.142589911818504333e-02,-1.111967023462057114e-02,-1.903380081057548523e-02,3.198477206751704216e-03,1.394485495984554291e-02,-2.240070170955732465e-04,-1.785838976502418518e-02,-2.217474021017551422e-02,1.131721190176904202e-03,-1.616016030311584473e-02,8.826270699501037598e-03,-3.402051329612731934e-02,4.554980434477329254e-03,-2.001250535249710083e-02,1.907990127801895142e-02,-3.199191763997077942e-02,-7.385187782347202301e-03,-8.984961546957492828e-03,2.614392898976802826e-02,-1.995636336505413055e-02,-2.622695639729499817e-02,6.404055282473564148e-03,3.420536220073699951e-02,-1.784290187060832977e-02,2.231065183877944946e-02,-1.098495349287986755e-02,-3.346680197864770889e-03,-1.398633234202861786e-02,-2.583830617368221283e-02,2.322855405509471893e-02,-6.120913196355104446e-03,-4.636197700165212154e-04,-3.219680162146687508e-03,-2.911501377820968628e-02,-2.407870814204216003e-02,2.581331646069884300e-03,-4.562734160572290421e-03,1.813806965947151184e-02,-1.908637466840445995e-03,-2.472624182701110840e-03,1.992706907913088799e-03,1.156436745077371597e-02,1.247129868716001511e-02,-4.137839004397392273e-02,2.476646564900875092e-02,4.331141244620084763e-04,-3.105437150225043297e-03,2.621855214238166809e-02,-2.531277202069759369e-02,1.289435382932424545e-02,2.230621688067913055e-02,3.150694072246551514e-02,-3.637634590268135071e-02,6.681305356323719025e-03,-5.146108102053403854e-03,-1.975926943123340607e-02,1.614193664863705635e-03,-2.797506377100944519e-02,-4.393748939037322998e-02,1.607519760727882385e-02,-2.514424361288547516e-02,-3.007113374769687653e-02,-2.742864191532135010e-02,-1.256170589476823807e-02,-1.630567573010921478e-02,-2.695626579225063324e-02,-1.675051450729370117e-02,1.929936185479164124e-02,7.678827736526727676e-03,-2.437382936477661133e-02,-7.521952502429485321e-03,-6.504131481051445007e-03,-2.725833095610141754e-02,-3.093440830707550049e-02,7.484592497348785400e-03,2.886025793850421906e-02,3.360264003276824951e-02,-1.779239252209663391e-02,3.104415163397789001e-02,2.501384913921356201e-02,4.694010131061077118e-03,2.550712786614894867e-02,2.352901920676231384e-02,1.235611457377672195e-02,-4.386168718338012695e-02,-4.253749176859855652e-02,-3.435586020350456238e-02,-2.663391269743442535e-02,-2.943350188434123993e-02,2.637886069715023041e-02,-9.340107440948486328e-03,6.173159927129745483e-03,-4.104955121874809265e-02,-3.697372600436210632e-02,1.303474046289920807e-02,-1.336434204131364822e-02,5.730503704398870468e-03,-3.091483190655708313e-02,-3.534405305981636047e-02,1.833630353212356567e-02,-2.956242486834526062e-02,1.054919208399951458e-03,-2.408135309815406799e-02,-1.960016228258609772e-02,-3.293196484446525574e-02,4.122640471905469894e-03,-1.142145972698926926e-02,-8.355556987226009369e-03,1.586890779435634613e-02,1.414497382938861847e-02,-1.010005176067352295e-02,-1.922229491174221039e-02,-1.048323418945074081e-02,-3.574230521917343140e-02,2.713247761130332947e-02,-9.449493139982223511e-03,2.221672236919403076e-02,-2.113443240523338318e-02,-3.146173059940338135e-02,-3.604315593838691711e-02,-2.758861333131790161e-02,1.562044676393270493e-02,-1.288063637912273407e-02,-2.783975377678871155e-02,1.041818037629127502e-02,-1.437524333596229553e-03,1.716314628720283508e-02,-7.402270566672086716e-03,-4.889129661023616791e-03,1.104115974158048630e-02,3.336258977651596069e-02,4.787879530340433121e-03,-5.919056478887796402e-03,-3.415958210825920105e-02,-1.399416197091341019e-02,-1.153353229165077209e-02,-3.954977542161941528e-02,-4.388982895761728287e-03,-3.511961549520492554e-02,2.839846536517143250e-02,2.651128359138965607e-02,2.255014516413211823e-02,-1.351268775761127472e-02,-6.214342080056667328e-03,-1.107016112655401230e-03,-1.371361222118139267e-02,-1.789317838847637177e-02,2.270017936825752258e-02,-6.681001279503107071e-03,-1.125287381000816822e-03,-3.699634596705436707e-02,1.338819274678826332e-03,1.524230279028415680e-02,-2.211309038102626801e-02,-2.730959653854370117e-02,1.643885113298892975e-02,-1.998519711196422577e-02,2.544361632317304611e-03,2.328148484230041504e-02,2.155497856438159943e-02,5.272187758237123489e-03,4.135894402861595154e-02,-2.918340638279914856e-02,-8.922985754907131195e-03,-1.582600735127925873e-02,7.208190858364105225e-03,1.684997789561748505e-02,-2.674844674766063690e-02,-2.916167490184307098e-02,-1.856112666428089142e-02,1.963866502046585083e-02,-3.526765108108520508e-02,-2.683763951063156128e-02,2.385503239929676056e-02,-3.793350188061594963e-03,-2.151155099272727966e-02,-1.224005501717329025e-02,1.548651838675141335e-03,-7.473016157746315002e-03,3.944147378206253052e-03,-2.176793478429317474e-02,-9.990384802222251892e-03,2.074481546878814697e-02,2.245618402957916260e-02,-3.735777363181114197e-02,1.907675154507160187e-02,4.251914098858833313e-03,-1.909272000193595886e-02,1.704208552837371826e-02,-1.125478185713291168e-02,-2.341663092374801636e-02,-2.835369296371936798e-02,-4.119561612606048584e-02,-2.816464006900787354e-02,-9.070189669728279114e-03,8.996480144560337067e-03,1.718199066817760468e-02,-2.377313934266567230e-02,-3.389484807848930359e-02,-3.057365119457244873e-02,-3.046215884387493134e-02,-6.892922800034284592e-03,2.592333219945430756e-02,-2.958431839942932129e-02,-4.710839595645666122e-03,-3.858208656311035156e-02,-1.237903349101543427e-02,-2.224412001669406891e-02,-4.050791263580322266e-02,3.756339428946375847e-03,-2.989757631439715624e-04,-2.124876482412219048e-03,2.444460615515708923e-02,-2.604620344936847687e-02,3.512328118085861206e-02,-2.311091125011444092e-02,-8.478005416691303253e-03,-2.500610426068305969e-02,-3.878274234011769295e-03,-2.572264056652784348e-03,-4.021677747368812561e-02,-1.652547344565391541e-02,-1.499909441918134689e-02,-3.661537170410156250e-02,2.316933497786521912e-02,-2.430943213403224945e-02,-1.524830982089042664e-02,-1.234537735581398010e-02,-7.320601958781480789e-03,-6.917422171682119370e-03,-4.098781943321228027e-02,-1.129079889506101608e-02,2.400340884923934937e-02,-1.849372126162052155e-02,2.068845368921756744e-02,-2.726429328322410583e-02,-5.850958637893199921e-03,2.210106514394283295e-02,5.986753385514020920e-04,-3.248795866966247559e-02,-2.032374590635299683e-02,-2.883085608482360840e-02,-3.494873270392417908e-02,-3.317315876483917236e-02,1.054897997528314590e-02,-2.869711816310882568e-02,1.728768926113843918e-03,7.740979082882404327e-03,1.665149582549929619e-03,-3.229630738496780396e-02,-2.892910270020365715e-04,1.397584856022149324e-04,1.749033574014902115e-03,-2.529191225767135620e-02,-7.394660729914903641e-03,-2.866535214707255363e-03,4.686604719609022141e-03,2.212528325617313385e-02,-3.813830018043518066e-02,-2.291349135339260101e-02,4.167572595179080963e-03,-2.446301223244518042e-04,1.985316351056098938e-02,-6.633957847952842712e-03,-4.082709178328514099e-02,-2.840481325984001160e-02,5.827486049383878708e-03,-2.206873334944248199e-02,-2.836218476295471191e-02,-1.399354659952223301e-03,-2.018617466092109680e-03,2.240209653973579407e-02,-2.135420404374599457e-02,-1.594148389995098114e-02,-2.514887414872646332e-02,-1.385539304465055466e-02,-2.269709296524524689e-02,-3.145720809698104858e-02,7.351248525083065033e-03,-3.947040066123008728e-02,-1.301915291696786880e-02,2.695810236036777496e-02,-3.117141686379909515e-02,2.622370235621929169e-02,2.368936873972415924e-02,1.541710738092660904e-02,2.032445557415485382e-02,7.407874800264835358e-03,-4.321827366948127747e-02,-3.362789005041122437e-02,-1.460376847535371780e-02,-3.723704442381858826e-02,-2.752779610455036163e-02,-3.373553603887557983e-02,4.343716893345117569e-03,-1.241910364478826523e-02,9.539014659821987152e-03,-1.520553790032863617e-02,1.554862875491380692e-02,-1.627141050994396210e-02,-6.173146888613700867e-03,2.329312637448310852e-02,-1.870493032038211823e-02,2.022878825664520264e-02,-3.219615668058395386e-02,-1.127983909100294113e-03,-9.686571545898914337e-03,-3.521846234798431396e-02,1.143793575465679169e-02,-2.777275070548057556e-02,-1.693664118647575378e-02,-6.950017530471086502e-03,2.601091191172599792e-02,-3.541581332683563232e-02,-3.508241474628448486e-02,2.295710891485214233e-02,6.942037027329206467e-03,1.613116450607776642e-02,-3.105507604777812958e-02,-8.844895288348197937e-03,2.571274153888225555e-02,-6.968482397496700287e-03,-2.378069609403610229e-02,2.049827016890048981e-02,-1.059132907539606094e-02,2.622240781784057617e-02,2.729785256087779999e-02,-1.797034172341227531e-03,-2.434967085719108582e-02,2.449731901288032532e-02,-9.617500938475131989e-03,1.135488506406545639e-03,-1.088446937501430511e-02,-3.560385666787624359e-03,2.395046688616275787e-02,-2.031320519745349884e-02,2.832323312759399414e-02,-3.836192190647125244e-02,-1.477140653878450394e-02,-3.739106282591819763e-02,1.016422268003225327e-02,3.978505730628967285e-03,-1.020752824842929840e-02,1.407852955162525177e-02,-4.015162587165832520e-02,-4.218940809369087219e-02,4.609545692801475525e-03,-5.681408103555440903e-03,-3.624325850978493690e-03,-3.891165181994438171e-02,6.824211217463016510e-03,-4.606839735060930252e-03,-2.256238646805286407e-02,-9.380348958075046539e-03,2.044057101011276245e-02,2.751275710761547089e-02,-7.600996177643537521e-03,-3.373903036117553711e-02,-4.622418899089097977e-03,7.573049981147050858e-03,-1.775765977799892426e-02,-3.378016874194145203e-02,-8.224257268011569977e-03,-1.978921703994274139e-02,-4.015768319368362427e-02,-2.402292098850011826e-03,1.933233253657817841e-02,2.752175740897655487e-02,-1.303976308554410934e-02,-3.475341945886611938e-02,1.149161346256732941e-02,1.828730478882789612e-02,-2.618831396102905273e-02,-4.116653278470039368e-02,5.204001907259225845e-03,-3.489067032933235168e-02,1.487377565354108810e-02,-3.522816672921180725e-02,-3.119526803493499756e-02,-3.039167029783129692e-03,1.093368045985698700e-02,-1.491769123822450638e-02,-3.728846320882439613e-03,1.682321168482303619e-02,-4.079625010490417480e-02,1.574096735566854477e-03,3.520951420068740845e-02,-1.084968075156211853e-02,-1.295200921595096588e-02,3.457288024947047234e-03,1.031188666820526123e-02,-7.609958174725761637e-07,-1.362565997987985611e-02,-8.890125900506973267e-03,2.597688883543014526e-02,2.126230485737323761e-02,2.208044938743114471e-02,2.395964972674846649e-02,-1.712535694241523743e-02,9.291248396039009094e-03,-9.884280152618885040e-03,-2.398696169257164001e-02,-3.118666587397456169e-03,-5.741686560213565826e-03,2.837582491338253021e-02,-2.106479182839393616e-02,-6.723752710968255997e-03,-2.958194911479949951e-02,-1.148742344230413437e-02,1.676398143172264099e-02,1.081334147602319717e-02,-2.272010780870914459e-02,1.536647696048021317e-02,2.610113285481929779e-02,-9.442231617867946625e-03,-3.082145191729068756e-02,-2.137925662100315094e-02,-1.384281204082071781e-04,-3.687003254890441895e-02,-7.635973393917083740e-03,1.000432879664003849e-03,3.464644541963934898e-03,-3.729468956589698792e-02,5.272437352687120438e-03,-6.501698400825262070e-03,-3.303533792495727539e-02,-3.769698366522789001e-02,-2.410293743014335632e-02,-2.375596947968006134e-02,-3.821197897195816040e-02,-1.764482446014881134e-02,-5.465685389935970306e-03,-1.481930445879697800e-02,9.127762168645858765e-03,2.691951021552085876e-02,2.958712540566921234e-02,1.385143864899873734e-02,1.094311848282814026e-02,-9.313818067312240601e-03,2.039016410708427429e-02,-2.575670741498470306e-02,2.399602718651294708e-02,-8.571808226406574249e-03,1.718556135892868042e-02,4.034995101392269135e-03,9.780775755643844604e-03,-3.892377717420458794e-03,-3.222219645977020264e-02,-3.485907614231109619e-02,-1.605794578790664673e-02,-2.473793178796768188e-02,-3.088370710611343384e-02,1.973392441868782043e-02,2.568364329636096954e-02,-4.061960801482200623e-02,-3.456386923789978027e-02,-1.135949790477752686e-02,2.194418944418430328e-02,-2.988311275839805603e-02,2.127491682767868042e-02,1.844387128949165344e-02,-4.105515033006668091e-02,2.105861343443393707e-02,7.921796292066574097e-03,-2.743871510028839111e-02,-2.325015328824520111e-02,-2.774250693619251251e-02,1.501678861677646637e-02,-6.837514694780111313e-03,1.930390135385096073e-03,1.540422067046165466e-02,5.122249014675617218e-03,3.540281904861330986e-03,-3.170399740338325500e-02,3.793369047343730927e-03,-3.688781708478927612e-02,-8.562561124563217163e-03,-8.148672059178352356e-03,-3.091834858059883118e-02,-1.415140181779861450e-02,1.128938328474760056e-02,-3.656728193163871765e-02,-2.542118076235055923e-03,-3.307570517063140869e-02,2.564794570207595825e-02,-3.201740235090255737e-02,-3.642002493143081665e-02,-8.470304310321807861e-03,4.781640134751796722e-03,1.253075525164604187e-02,-3.197436034679412842e-02,-7.712045218795537949e-03,5.652185995131731033e-03,-1.326314359903335571e-02,2.090077102184295654e-02,1.600350625813007355e-02,-4.592680372297763824e-03,2.266700007021427155e-02,2.770625054836273193e-02,-2.368671260774135590e-02,-9.558333083987236023e-03,-1.928145624697208405e-02,1.914735138416290283e-02,-2.082516998052597046e-02,5.360931623727083206e-03,-4.021495208144187927e-02,-4.259944707155227661e-02,-4.056456312537193298e-02,1.093277335166931152e-02,-1.750439032912254333e-02,-2.255574800074100494e-02,2.009570412337779999e-02,-3.938874974846839905e-02,7.298845797777175903e-03,-1.318010129034519196e-02,3.319645673036575317e-02,1.068279147148132324e-02,-2.718749456107616425e-02,-1.765695028007030487e-02,-2.738293446600437164e-02,-1.455190312117338181e-02,-1.756613515317440033e-02,2.750950679183006287e-02,-8.099704980850219727e-03,-2.170366980135440826e-02,3.721083980053663254e-03,2.146102301776409149e-02,-2.436204627156257629e-02,4.243067465722560883e-03,1.358342915773391724e-02,-4.938134923577308655e-03,2.446043118834495544e-02,2.269574627280235291e-02,-7.894705981016159058e-03,2.909928094595670700e-03,-2.168814651668071747e-02,-2.418430894613265991e-02,-3.265067562460899353e-02,3.749605640769004822e-02,-5.209601949900388718e-03,3.303298354148864746e-02,3.870408236980438232e-02,-2.248293720185756683e-02,3.707265108823776245e-02,-2.685226686298847198e-02,3.552846610546112061e-02,1.394416391849517822e-02,3.736953064799308777e-02,2.737643895670771599e-03,-1.444306038320064545e-02,-1.727132312953472137e-02,1.718803122639656067e-02,1.183455809950828552e-02,2.295016497373580933e-02,-1.312611810863018036e-02,1.996553875505924225e-02,-1.714989170432090759e-02,1.225071307271718979e-02,3.251136094331741333e-02,-9.514426928944885731e-04,-2.384714968502521515e-02,2.637587022036314011e-03,2.147377841174602509e-02,2.372286096215248108e-02,2.561990916728973389e-02,-5.061144474893808365e-03,7.988973520696163177e-03,1.168605126440525055e-02,-1.387688051909208298e-02,-1.890140399336814880e-02,-3.557243570685386658e-02,-2.101177163422107697e-02,1.759009249508380890e-02,-1.861341297626495361e-02,-4.264045506715774536e-03,-1.451640389859676361e-02,4.150616377592086792e-02,9.640526026487350464e-03,-1.480729319155216217e-02,3.174978494644165039e-02,2.103710360825061798e-02,-1.900885067880153656e-02,-2.740560844540596008e-02,3.185434266924858093e-02,2.071210416033864021e-03,2.783714607357978821e-02,-2.121826261281967163e-02,3.881288692355155945e-03,4.088325425982475281e-03,-1.089680660516023636e-02,-7.163227070122957230e-03,-3.477915748953819275e-02,1.507180556654930115e-02,1.600002869963645935e-02,1.535838097333908081e-02,-3.513201698660850525e-02,2.452049963176250458e-02,-1.750646904110908508e-02,-1.817320659756660461e-02,6.012167781591415405e-03,3.789972979575395584e-04,3.341647610068321228e-02,-2.493263781070709229e-02,3.295258805155754089e-02,2.045955322682857513e-02,3.049657680094242096e-03,-2.508215419948101044e-02,-1.327146869152784348e-02,3.148721158504486084e-02,3.543643653392791748e-02
2.427022531628608704e-02,2.213222719728946686e-02,2.230018936097621918e-02,2.197817154228687286e-02,-3.319158777594566345e-02,-2.362166298553347588e-03,2.943519316613674164e-02,1.859477162361145020e-02,1.300601102411746979e-02,-3.446720913052558899e-02,1.361072063446044922e-04,2.697476372122764587e-02,1.874507777392864227e-02,-1.117143500596284866e-02,-4.029159434139728546e-03,7.362183183431625366e-03,-9.873326867818832397e-03,-7.903405930846929550e-04,-1.049058791249990463e-02,3.272270411252975464e-02,-3.663914743810892105e-03,1.874403469264507294e-02,-7.102349307388067245e-03,3.890318796038627625e-03,3.224376961588859558e-02,-1.011380227282643318e-03,2.877447567880153656e-02,-1.667959429323673248e-02,1.277137733995914459e-02,2.709926664829254150e-02,3.667133278213441372e-04,-2.910181507468223572e-02,-1.740775071084499359e-03,1.846858533099293709e-03,-1.795685291290283203e-02,-1.121841184794902802e-02,3.342800959944725037e-02,1.557860244065523148e-02,-3.480572625994682312e-02,-2.504940610378980637e-03,2.236358635127544403e-02,-2.831112965941429138e-02,2.364495955407619476e-02,6.996513810008764267e-03,-1.159625709988176823e-03,-1.390757784247398376e-02,-6.847488228231668472e-03,1.906959153711795807e-02,-3.157743439078330994e-02,1.359907258301973343e-02,-3.397399932146072388e-02,-1.250589359551668167e-02,-2.975105866789817810e-02,1.769344881176948547e-02,1.102959737181663513e-02,-1.822561142034828663e-03,2.329010702669620514e-02,-2.190841548144817352e-02,-6.900940788909792900e-04,-1.482268422842025757e-02,1.214077230542898178e-02,8.248388767242431641e-03,1.936884596943855286e-02,-5.448499228805303574e-03,-2.403763122856616974e-02,1.411224342882633209e-02,-1.133207790553569794e-02,2.238245680928230286e-02,-3.477877005934715271e-02,-3.525665961205959320e-03,2.912438847124576569e-02,2.308936603367328644e-02,3.450641036033630371e-02,-3.143264725804328918e-02,-1.148553006350994110e-02,7.851107046008110046e-03,5.139397922903299332e-03,1.302857976406812668e-02,2.736615482717752457e-03,2.953176153823733330e-03,1.432106364518404007e-02,4.106777254492044449e-03,2.856067381799221039e-03,-1.395902503281831741e-02,-1.740455627441406250e-02,-1.366165746003389359e-02,-2.121330238878726959e-02,3.048173524439334869e-02,4.164585378021001816e-03,-9.776026010513305664e-03,1.325706113129854202e-02,2.444001659750938416e-02,-2.855321019887924194e-02,1.499336096458137035e-03,3.186991438269615173e-03,-3.951119631528854370e-02,1.283851824700832367e-02,-1.078493613749742508e-02,2.002158388495445251e-02,-3.574718534946441650e-02,-1.155618764460086823e-02,2.296959422528743744e-02,1.550880819559097290e-02,2.049962803721427917e-02,1.746013388037681580e-02,-2.362418733537197113e-02,1.453443616628646851e-02,2.675114199519157410e-02,2.626836486160755157e-02,2.807588875293731689e-02,-2.461290545761585236e-02,2.949413843452930450e-02,1.191429607570171356e-02,-2.877325005829334259e-02,-3.492098301649093628e-02,3.077382408082485199e-02,-2.868730947375297546e-02,-6.943223997950553894e-03,-1.551587227731943130e-02,-2.727229148149490356e-02,-2.601217292249202728e-02,-3.725582361221313477e-02,-3.863705322146415710e-02,1.594446785748004913e-02,-2.463724650442600250e-02,-3.021537885069847107e-02,-1.939634047448635101e-02,2.493324503302574158e-02,-4.881257191300392151e-03,-2.034028246998786926e-02,-1.803716272115707397e-02,-9.717387147247791290e-03,2.256711712107062340e-03,9.629626758396625519e-03,-2.162302657961845398e-02,-1.273602247238159180e-02,-3.198475763201713562e-02,-1.660194620490074158e-02,-3.360138088464736938e-02,-2.667978592216968536e-02,2.789956517517566681e-02,1.777362823486328125e-02,5.792950280010700226e-03,-1.363395713269710541e-03,2.691589109599590302e-02,5.781734362244606018e-03,2.503410726785659790e-02,-2.638178877532482147e-02,1.605548895895481110e-02,4.193742573261260986e-02,2.914212830364704132e-02,-2.555612474679946899e-02,1.305255573242902756e-02,-4.439556505531072617e-03,7.174211554229259491e-03,2.632915414869785309e-02,-3.790662810206413269e-02,8.925775764510035515e-04,-2.109239576384425163e-03,-3.658427670598030090e-02,-1.091129332780838013e-02,1.603357866406440735e-02,-2.219833806157112122e-02,-2.022277377545833588e-02,-1.254321448504924774e-02,5.857025738805532455e-03,1.149750221520662308e-02,-1.511779054999351501e-02,3.323999047279357910e-02,-2.619967050850391388e-02,-5.519526544958353043e-03,-3.581050410866737366e-02,-1.388228405267000198e-02,-3.645878657698631287e-02,-1.796207204461097717e-02,4.097837209701538086e-02,1.768916146829724312e-03,4.128094390034675598e-02,1.405515987426042557e-02,2.612971141934394836e-02,-2.673604339361190796e-02,1.623182930052280426e-02,9.868561290204524994e-03,-4.678212106227874756e-03,-1.215328276157379150e-02,7.682539289817214012e-04,-4.071709141135215759e-02,-2.947052381932735443e-02,-7.335152011364698410e-03,2.709289640188217163e-02,1.645181328058242798e-02,-7.626675534993410110e-03,-1.533528993604704738e-04,-2.624085173010826111e-02,2.436219900846481323e-02,6.061268970370292664e-03,1.648708805441856384e-02,4.044352844357490540e-02,8.523565717041492462e-03,-3.662245348095893860e-03,4.271340090781450272e-03,-7.826683111488819122e-03,3.955667093396186829e-02,2.527152746915817261e-02,5.006740614771842957e-02,4.594127461314201355e-02,2.912205085158348083e-02,-7.793293334543704987e-03,9.652527980506420135e-03,1.080527901649475098e-02,1.439009048044681549e-02,-2.932649105787277222e-02,-5.853359121829271317e-03,5.935041699558496475e-03,2.260863967239856720e-02,2.216829173266887665e-02,-1.966711133718490601e-02,4.434867296367883682e-03,1.334876101464033127e-02,-5.497100763022899628e-03,3.135546296834945679e-02,1.032054238021373749e-02,2.111097425222396851e-02,-2.012776955962181091e-02,2.409404702484607697e-02,-2.628975734114646912e-02,2.047967165708541870e-02,-5.757875274866819382e-03,-3.039168566465377808e-02,3.760972991585731506e-02,5.319743603467941284e-02,6.648349575698375702e-03,4.309540241956710815e-02,2.138265967369079590e-02,4.301747307181358337e-03,6.346847512759268284e-04,-3.749179467558860779e-02,1.833181828260421753e-02,1.246649492532014847e-02,1.092812791466712952e-02,1.083763875067234039e-02,2.091684378683567047e-03,-1.023108419030904770e-02,1.834635995328426361e-02,-3.408349677920341492e-02,-1.557503174990415573e-02,-2.530481480062007904e-02,-9.750167839229106903e-03,1.967795193195343018e-02,3.419896587729454041e-02,-1.281445845961570740e-02,-3.226804733276367188e-02,4.394640680402517319e-03,1.903978548943996429e-02,-3.484660759568214417e-03,4.565552622079849243e-02,2.666344307363033295e-02,-1.761306077241897583e-02,4.289642348885536194e-02,7.032453548163175583e-03,1.709203980863094330e-02,3.570943325757980347e-02,-2.110513485968112946e-02,-8.110147900879383087e-03,-2.467042021453380585e-02,2.446626499295234680e-02,-3.799442946910858154e-02,-2.039533481001853943e-02,2.042132057249546051e-02,3.687034593895077705e-03,-2.499887719750404358e-02,-3.278220072388648987e-02,-2.140611642971634865e-03,-3.105807304382324219e-02,-1.807002536952495575e-02,-1.807293388992547989e-03,9.776552207767963409e-03,-1.598824001848697662e-02,-2.048751711845397949e-02,6.094605196267366409e-03,2.426286041736602783e-02,2.657993510365486145e-02,1.734352484345436096e-02,1.437597628682851791e-02,-2.299611223861575127e-03,4.041614755988121033e-02,3.801106289029121399e-02,-5.708736367523670197e-03,-2.889565005898475647e-02,-3.106753714382648468e-02,1.638866588473320007e-02,-4.304151237010955811e-02,-2.389702573418617249e-02,-2.116037718951702118e-02,-1.238743867725133896e-02,2.346174232661724091e-02,1.950238272547721863e-02,-3.919788822531700134e-02,-3.115780279040336609e-02,-2.083793096244335175e-02,-1.413567177951335907e-02,-1.358625758439302444e-02,6.169043481349945068e-03,-2.439371682703495026e-02,-2.836894057691097260e-02,2.645111642777919769e-02,7.191275246441364288e-03,-2.040699683129787445e-02,4.962027445435523987e-02,5.274074152112007141e-02,1.223535388708114624e-01,1.393081992864608765e-01,4.802650213241577148e-02,5.841484293341636658e-02,3.166167438030242920e-02,-2.799719013273715973e-02,-1.681951060891151428e-02,-2.037660777568817139e-02,2.558274753391742706e-02,-1.901176199316978455e-02,-3.326902911067008972e-02,2.559796907007694244e-03,-2.146687358617782593e-02,-2.036125771701335907e-02,2.647073194384574890e-02,2.712052315473556519e-03,2.355802617967128754e-02,-2.265293523669242859e-02,2.120710536837577820e-02,3.917536512017250061e-02,-4.362986423075199127e-03,6.679290533065795898e-02,2.132157236337661743e-02,1.149621233344078064e-02,-2.307760063558816910e-03,-8.592593483626842499e-03,2.643283270299434662e-02,1.094933301210403442e-01,1.309170871973037720e-01,1.580905914306640625e-01,5.755324289202690125e-02,9.012643247842788696e-02,2.214968204498291016e-02,1.908416487276554108e-02,2.781657734885811806e-03,-7.567800115793943405e-03,9.874369949102401733e-03,2.077784948050975800e-02,-1.792008429765701294e-02,2.176984772086143494e-02,-1.158284372650086880e-03,4.742030054330825806e-03,-3.815830498933792114e-02,6.789205595850944519e-03,-1.638235338032245636e-02,2.097562421113252640e-03,-9.397222660481929779e-03,-8.090244606137275696e-03,1.205747667700052261e-02,2.243429422378540039e-02,-2.497272752225399017e-02,-9.986711665987968445e-03,-1.095172856003046036e-02,3.273179754614830017e-02,-9.948411956429481506e-03,3.014759719371795654e-02,1.737811416387557983e-01,5.572021752595901489e-02,-2.277567051351070404e-02,5.101912468671798706e-02,6.017165258526802063e-02,1.956738531589508057e-02,9.238909929990768433e-03,-3.179359808564186096e-02,2.285917475819587708e-02,-1.321231364272534847e-03,-3.742330148816108704e-02,-1.400755532085895538e-02,-4.139445256441831589e-03,-1.917474716901779175e-02,-1.450200658291578293e-02,2.111046947538852692e-02,-1.748826913535594940e-02,-1.589582860469818115e-02,-8.862948045134544373e-03,1.575469225645065308e-02,1.640916056931018829e-02,3.461525589227676392e-02,2.200918970629572868e-03,2.362694777548313141e-02,6.257427856326103210e-03,2.990689128637313843e-02,-2.609500847756862640e-02,-1.702879555523395538e-03,1.062751337885856628e-01,-1.248838938772678375e-02,4.921899735927581787e-02,4.761012643575668335e-02,-1.163838664069771767e-03,-3.543923795223236084e-02,2.174341119825839996e-02,-1.690049096941947937e-02,-3.916253894567489624e-02,-2.074766904115676880e-02,-4.305309429764747620e-02,-3.266109153628349304e-02,-1.647394895553588867e-02,4.147426690906286240e-03,2.515028044581413269e-02,-2.702144905924797058e-02,2.453874982893466949e-02,7.670772727578878403e-03,1.190220844000577927e-02,2.378369495272636414e-02,1.809792034327983856e-02,1.691203750669956207e-02,8.902437984943389893e-03,4.322820529341697693e-02,1.459074905142188072e-03,1.705416652839630842e-04,2.663694694638252258e-02,-1.200522761791944504e-02,-4.092767462134361267e-02,-1.387752965092658997e-02,2.892622351646423340e-02,3.439541533589363098e-02,4.463732615113258362e-02,3.122048638761043549e-02,1.265008188784122467e-02,3.734211903065443039e-03,7.672553882002830505e-03,1.643163524568080902e-02,1.396620180457830429e-02,-3.010642016306519508e-03,1.855381531640887260e-03,-2.842760644853115082e-02,-3.325043618679046631e-02,-5.233779549598693848e-03,-7.167599163949489594e-03,2.065635472536087036e-02,-5.002692341804504395e-03,3.242205455899238586e-02,3.317238390445709229e-02,3.143732622265815735e-02,-2.009356766939163208e-02,3.642723709344863892e-02,-2.121305093169212341e-02,-1.070946455001831055e-03,3.267101943492889404e-02,3.382692858576774597e-02,1.620935089886188507e-02,-9.254758246243000031e-03,1.318295486271381378e-03,6.199133768677711487e-02,5.189387872815132141e-02,-1.645929738879203796e-02,-1.207487890496850014e-03,-1.924892305396497250e-03,-3.342754766345024109e-02,8.120450191199779510e-03,-8.732222020626068115e-03,-2.717473916709423065e-02,2.732434682548046112e-02,-2.801141701638698578e-02,2.060351148247718811e-02,1.110921148210763931e-02,4.180956457275897264e-04,2.222881838679313660e-02,2.208410017192363739e-02,4.595035687088966370e-02,4.056962206959724426e-02,9.422508999705314636e-03,-2.828496973961591721e-03,-1.714480109512805939e-02,-2.926570735871791840e-02,-2.658824063837528229e-02,2.387213893234729767e-02,6.706480868160724640e-03,-1.052656443789601326e-03,-4.440816119313240051e-03,-1.656653173267841339e-02,-1.386969117447733879e-03,2.744203247129917145e-02,-2.023574151098728180e-02,1.481369882822036743e-02,2.542360685765743256e-02,-4.215874150395393372e-02,2.391050383448600769e-02,-2.317417785525321960e-02,-2.456607297062873840e-02,6.926490925252437592e-03,1.841332390904426575e-02,-1.983422972261905670e-02,-7.833226583898067474e-03,4.105073213577270508e-02,2.500770799815654755e-02,2.460191771388053894e-02,1.748456805944442749e-02,2.295149862766265869e-02,-1.439524441957473755e-02,-3.005603887140750885e-02,7.122486829757690430e-02,9.696567058563232422e-02,-1.426499336957931519e-02,2.509761042892932892e-02,3.490354400128126144e-03,-2.622791752219200134e-02,5.453920457512140274e-04,7.328263670206069946e-02,-2.572838589549064636e-02,2.433522837236523628e-03,-1.412728335708379745e-02,-2.548952400684356689e-02,-3.648380562663078308e-02,-3.525533154606819153e-02,-4.519382957369089127e-03,-5.847597960382699966e-03,1.671035215258598328e-02,-3.657630458474159241e-02,9.216953068971633911e-03,-1.200449303723871708e-03,-1.719572767615318298e-02,1.812008023262023926e-02,-1.244693901389837265e-02,1.095747482031583786e-02,-1.854955591261386871e-02,3.343103919178247452e-03,-3.870077431201934814e-02,-1.146449241787195206e-02,1.270873378962278366e-02,1.484609544277191162e-01,7.966804318130016327e-03,2.204083278775215149e-02,-1.581640681251883507e-03,2.602428197860717773e-03,-3.306338936090469360e-02,5.174510180950164795e-02,-3.164696320891380310e-02,-2.621263265609741211e-02,-4.130701720714569092e-02,1.650934666395187378e-02,-4.553067032247781754e-03,-4.108328744769096375e-02,-8.303847163915634155e-03,-3.751629218459129333e-02,-1.501061301678419113e-02,-1.681389659643173218e-02,-2.823558449745178223e-02,-3.960390761494636536e-02,-3.433348843827843666e-03,-1.108947582542896271e-02,-4.161530360579490662e-02,-2.281903848052024841e-02,-2.475737780332565308e-02,1.162649225443601608e-02,-4.240482673048973083e-02,-6.595332641154527664e-03,-2.944404631853103638e-02,6.274355575442314148e-03,-1.535458303987979889e-02,2.493583410978317261e-02,-2.922986261546611786e-02,-3.972628619521856308e-03,1.698021427728235722e-03,5.009549111127853394e-02,2.149482257664203644e-02,-3.452517092227935791e-02,-9.381547570228576660e-03,5.788815207779407501e-03,2.215651609003543854e-02,-4.114300385117530823e-02,2.519332058727741241e-02,-3.831812366843223572e-02,1.536859385669231415e-02,-1.099127903580665588e-02,-2.628581039607524872e-02,-3.003733232617378235e-02,-1.447838381864130497e-03,-3.526866063475608826e-02,2.506724372506141663e-02,-2.922125719487667084e-02,-1.864577643573284149e-02,9.207773953676223755e-03,-3.792677447199821472e-02,-2.634607441723346710e-02,-3.775282949209213257e-02,-5.355860572308301926e-03,6.530613172799348831e-03,1.802243106067180634e-02,-2.413480728864669800e-02,2.538712695240974426e-02,-2.823232859373092651e-02,-3.405252844095230103e-02,-1.675232686102390289e-02,2.330420352518558502e-02,-2.816374646499752998e-03,-1.493849977850914001e-02,1.532409153878688812e-02,-1.880371384322643280e-02,3.500992315821349621e-04,-3.929847851395606995e-02,-3.521961718797683716e-02,-3.129864111542701721e-02,-1.438205875456333160e-02,1.857637241482734680e-02,-1.680681854486465454e-02,1.740425359457731247e-03,-3.994786739349365234e-02,-1.575774326920509338e-02,-1.161044556647539139e-02,6.889101583510637283e-03,-3.029792103916406631e-03,-1.355340704321861267e-02,-2.832035161554813385e-02,2.014614455401897430e-02,7.652943022549152374e-03,2.828834392130374908e-02,2.188255265355110168e-02,-2.740651927888393402e-02,-8.336148224771022797e-03,-2.611024677753448486e-02,-4.062484204769134521e-02,-8.694723510416224599e-05,1.907923631370067596e-02,1.975636184215545654e-02,-2.078241482377052307e-02,-1.259928662329912186e-02,-1.718038879334926605e-02,-2.332447282969951630e-02,-2.620911411941051483e-02,2.015711367130279541e-02,4.782050848007202148e-03,1.143866684287786484e-02,8.541545830667018890e-04,-2.166854776442050934e-02,9.919723495841026306e-03,1.536577194929122925e-02,2.187013253569602966e-02,-1.333557628095149994e-02,-1.377523876726627350e-02,-1.231781113892793655e-02,-1.989909447729587555e-02,-1.267184969037771225e-02,-6.829560268670320511e-03,-3.847692860290408134e-03,1.661024428904056549e-02,-1.724592410027980804e-03,-3.449295833706855774e-02,-2.261759154498577118e-02,8.541328832507133484e-03,-2.320590242743492126e-02,-2.979207411408424377e-02,1.526248268783092499e-02,-3.845549002289772034e-02,3.332657739520072937e-03,-4.276935756206512451e-02,-2.520678972359746695e-04,2.769102714955806732e-02,-6.378371268510818481e-03,-2.887372113764286041e-02,-4.175517708063125610e-02,9.475796483457088470e-03,6.286251358687877655e-03,-4.641757160425186157e-02,1.000443194061517715e-02,1.642540842294692993e-02,-4.672847315669059753e-02,-3.565490618348121643e-02,3.145855292677879333e-02,3.337682783603668213e-02,1.997253857553005219e-02,-1.912061707116663456e-03,-2.956246584653854370e-02,1.464848965406417847e-02,1.566367573104798794e-04,-1.300096884369850159e-02,6.347781745716929436e-04,-1.401107572019100189e-02,-3.369028493762016296e-02,4.196349982521496713e-05,1.569696143269538879e-02,1.851456239819526672e-02,-2.225261554121971130e-02,-2.497723698616027832e-02,-3.319282457232475281e-02,-3.108512423932552338e-02,1.470127142965793610e-02,-3.560820221900939941e-02,-3.836115822196006775e-02,9.306438267230987549e-03,-4.526424687355756760e-03,-4.758465569466352463e-03,2.034753561019897461e-02,1.044661644846200943e-02,-1.983426325023174286e-02,1.663170009851455688e-02,3.033642424270510674e-03,7.525227032601833344e-03,2.995635941624641418e-02,1.075674407184123993e-02,2.939755655825138092e-02,-6.589536555111408234e-03,-2.718725055456161499e-02,-3.762317821383476257e-03,-9.856530465185642242e-03,3.095709718763828278e-02,2.235010499134659767e-03,3.815556690096855164e-02,2.711803466081619263e-02,-1.708775525912642479e-03,1.273765787482261658e-02,-2.625821391120553017e-03,2.989670448005199432e-02,-1.343428529798984528e-02,-1.724104955792427063e-02,-1.545862760394811630e-02,2.453898312523961067e-03,2.839852683246135712e-02,2.998890355229377747e-02,-6.378983380272984505e-04,2.556316740810871124e-02,8.569846302270889282e-02,3.483262285590171814e-02,-1.805440522730350494e-02,-2.570884767919778824e-03,2.245171740651130676e-02,-2.525262348353862762e-02,3.122024610638618469e-02,1.296873670071363449e-02,2.360820956528186798e-02,1.836885325610637665e-02,-3.525214735418558121e-03,2.654412947595119476e-02,2.286025695502758026e-02,-7.425714284181594849e-04,4.777741432189941406e-02,4.854821786284446716e-02,-1.958924345672130585e-02,1.888871006667613983e-02,-1.981039158999919891e-02,1.225486770272254944e-02,-2.291435841470956802e-03,-5.179750267416238785e-03,-1.937132887542247772e-02,3.342885989695787430e-03,-9.008379653096199036e-03,4.253139719367027283e-02,2.923296391963958740e-02,1.065658312290906906e-02,5.333471670746803284e-02,-1.047168765217065811e-02,2.546004392206668854e-02,2.299977280199527740e-02,1.945950463414192200e-02,-2.541580470278859138e-03,-2.134909480810165405e-02,5.297273863106966019e-03,1.875059120357036591e-02,-1.378010958433151245e-02,1.149405352771282196e-02,-3.321307152509689331e-02,-1.368658524006605148e-02,7.423086091876029968e-03,-3.453470766544342041e-02,2.670181356370449066e-02,2.449051477015018463e-02,4.038482904434204102e-03,-8.513107895851135254e-03,-7.469026837497949600e-03,1.770182512700557709e-02,1.722488366067409515e-02,4.279178380966186523e-02,8.791817724704742432e-02,4.816772043704986572e-02,-1.188872382044792175e-02,2.385763078927993774e-02,5.847182124853134155e-02,-1.646603085100650787e-02,4.376193135976791382e-02,-1.904915086925029755e-02,-8.415750344283878803e-04,-1.978485658764839172e-02,-3.081439808011054993e-02,9.854746982455253601e-03
1.171878073364496231e-02,3.887968603521585464e-03,-1.512690633535385132e-02,8.219885639846324921e-03,2.025257796049118042e-02,-2.501568756997585297e-03,1.122057437896728516e-03,8.738186210393905640e-03,1.766554050846025348e-04,-3.507492691278457642e-02,3.355415910482406616e-02,2.839392051100730896e-02,7.886431179940700531e-03,1.536896917968988419e-02,-3.530553728342056274e-02,-3.016834333539009094e-02,-3.074793890118598938e-02,-6.852409802377223969e-03,-3.059332817792892456e-02,2.247915975749492645e-02,-1.221348624676465988e-02,2.893554791808128357e-02,1.169628836214542389e-02,2.149442397058010101e-02,-2.169882878661155701e-02,2.189193619415163994e-03,1.761422865092754364e-02,-7.885831408202648163e-03,2.205895725637674332e-03,-3.989296499639749527e-03,2.241538278758525848e-02,-3.474082052707672119e-02,-3.445027396082878113e-02,2.732809260487556458e-02,-1.608725637197494507e-02,8.166577666997909546e-03,-7.577760145068168640e-03,3.396705910563468933e-02,-2.233654260635375977e-03,-4.007114097476005554e-03,-1.438493840396404266e-02,-3.511758893728256226e-02,-3.274825960397720337e-02,1.367768365889787674e-02,-3.569562733173370361e-02,2.668764069676399231e-02,-1.978383772075176239e-02,-2.616311889141798019e-03,1.302759163081645966e-02,2.481820434331893921e-02,8.146921172738075256e-03,-3.324196487665176392e-02,-7.331260945647954941e-03,-2.131630852818489075e-02,2.014167420566082001e-02,3.077113814651966095e-02,-5.993707105517387390e-03,2.710767462849617004e-02,3.271272405982017517e-02,2.793909609317779541e-02,2.393289655447006226e-02,2.161703445017337799e-02,2.265639975666999817e-02,-3.072490170598030090e-02,-1.857473701238632202e-02,1.218623388558626175e-02,-2.629107423126697540e-02,-2.191465115174651146e-03,-1.567650958895683289e-02,-1.831817068159580231e-02,-2.523049712181091309e-02,-1.187203265726566315e-02,-4.321609437465667725e-02,2.459060214459896088e-02,-8.889110758900642395e-03,2.092034183442592621e-02,1.614651083946228027e-02,-1.570350490510463715e-02,-2.977642044425010681e-02,-1.707012392580509186e-02,7.341487333178520203e-03,-1.865389570593833923e-02,-1.621184684336185455e-02,-2.113715372979640961e-02,2.082241512835025787e-02,-1.925745606422424316e-02,3.411527723073959351e-02,2.907789777964353561e-03,1.411290280520915985e-02,3.575248643755912781e-03,2.557987533509731293e-02,4.870871547609567642e-03,-2.084110677242279053e-02,-4.148868098855018616e-02,2.295101527124643326e-03,-3.316630795598030090e-02,-1.354280393570661545e-02,-6.069812178611755371e-02,-5.634389817714691162e-02,-2.587004564702510834e-02,-3.458531945943832397e-02,-3.566029947251081467e-03,2.127339830622076988e-04,-5.158611387014389038e-02,-3.804699704051017761e-02,-5.103105679154396057e-02,2.145672217011451721e-02,1.109980978071689606e-02,-3.202341124415397644e-02,-1.406742911785840988e-02,3.189407289028167725e-02,6.088401656597852707e-03,-2.690046280622482300e-02,3.342522075399756432e-03,3.066064231097698212e-02,-1.196107082068920135e-02,-2.396235428750514984e-02,2.020263113081455231e-02,8.555050007998943329e-03,-5.216900724917650223e-03,-6.444296240806579590e-02,-1.195834651589393616e-01,-6.352036446332931519e-02,-3.346900269389152527e-02,-5.426088720560073853e-02,-1.185837388038635254e-02,-3.359848260879516602e-02,-6.103700026869773865e-02,-8.659287542104721069e-02,-6.413251906633377075e-02,-7.773967832326889038e-02,-3.828082606196403503e-02,-1.470578648149967194e-02,-4.195899516344070435e-02,-4.032073915004730225e-02,-4.102961346507072449e-02,-1.200262736529111862e-02,-7.080780807882547379e-03,4.972215276211500168e-03,4.805952310562133789e-03,2.998017147183418274e-02,3.327676281332969666e-02,1.006038207560777664e-02,-2.705314010381698608e-02,1.640406670048832893e-03,1.055885571986436844e-02,4.655002616345882416e-03,5.911184847354888916e-02,1.245175749063491821e-01,7.549223303794860840e-02,-4.969790950417518616e-02,2.622844837605953217e-02,-1.073455996811389923e-02,-1.382214296609163284e-02,-1.437553856521844864e-02,-4.625733196735382080e-02,-5.882964283227920532e-02,-7.578149437904357910e-03,4.241785500198602676e-03,-6.674072891473770142e-02,-7.251071278005838394e-03,-3.397206589579582214e-02,-5.458110570907592773e-02,-8.332119882106781006e-02,-4.122436046600341797e-02,-6.836798787117004395e-02,-1.555429678410291672e-02,-2.385707013309001923e-02,2.938796579837799072e-02,-2.002328634262084961e-03,4.878127202391624451e-02,-3.183777257800102234e-02,1.817176118493080139e-02,7.881439290940761566e-03,-2.442855946719646454e-02,3.676961362361907959e-02,4.423766583204269409e-02,4.740855470299720764e-02,7.043135818094015121e-03,-4.111832752823829651e-02,-3.116389364004135132e-02,-9.451271966099739075e-03,-1.261707657249644399e-04,-1.341613847762346268e-02,2.189903706312179565e-02,-4.056025296449661255e-02,5.219740793108940125e-02,2.077578194439411163e-02,-2.278829179704189301e-02,-1.970989443361759186e-02,3.279154747724533081e-02,2.773750945925712585e-02,3.907976206392049789e-03,-1.741617545485496521e-02,2.695131860673427582e-02,-2.972202375531196594e-02,-5.112885031849145889e-03,2.142230272293090820e-01,2.021695673465728760e-02,1.005074679851531982e-01,-1.889505237340927124e-02,4.909297451376914978e-02,-1.531167654320597649e-03,1.582167111337184906e-02,4.239740595221519470e-02,3.711297735571861267e-02,3.490971773862838745e-02,1.456051599234342575e-02,-1.298019941896200180e-02,-7.508620619773864746e-03,-1.221497636288404465e-02,-1.410747133195400238e-02,-8.145333267748355865e-03,1.954675465822219849e-02,3.818783164024353027e-02,1.640163548290729523e-02,-5.954113323241472244e-03,5.751772318035364151e-03,-1.618857681751251221e-02,2.980758622288703918e-02,4.880736581981182098e-03,-8.410712704062461853e-03,-7.977541536092758179e-02,-4.339980427175760269e-03,-1.634791377000510693e-03,1.744706630706787109e-01,-1.972957700490951538e-02,5.140021070837974548e-02,3.232694417238235474e-02,3.131719678640365601e-02,2.800874412059783936e-02,1.651970855891704559e-02,3.771330043673515320e-02,2.265037968754768372e-02,3.976917639374732971e-02,4.525822773575782776e-02,9.243859909474849701e-03,2.160044573247432709e-02,-7.281470461748540401e-04,3.808346390724182129e-02,1.420617569237947464e-02,2.092644944787025452e-02,-1.788807101547718048e-02,2.850269712507724762e-02,-1.510456483811140060e-02,-1.712600141763687134e-02,2.566215209662914276e-02,5.161044001579284668e-02,-2.636335976421833038e-02,3.113994374871253967e-02,-3.255546838045120239e-02,2.494406327605247498e-02,2.139677992090582848e-03,6.374502927064895630e-02,2.888266369700431824e-02,-1.069887448102235794e-02,3.026496618986129761e-02,1.195130962878465652e-02,3.667850047349929810e-02,2.390030026435852051e-02,1.619593426585197449e-02,-4.526811186224222183e-03,1.659110002219676971e-02,4.177147895097732544e-02,6.058215722441673279e-02,-6.109070032835006714e-03,1.038120314478874207e-02,8.005939424037933350e-03,3.029569052159786224e-02,2.793504483997821808e-02,-8.465714752674102783e-03,2.391204982995986938e-02,-3.469367511570453644e-03,5.521234497427940369e-02,-1.341058593243360519e-02,-2.586305607110261917e-03,-3.127541765570640564e-02,-3.989663440734148026e-03,-1.956810615956783295e-02,2.501335553824901581e-02,3.695023478940129280e-03,1.419513858854770660e-02,-1.520686503499746323e-02,-4.748311475850641727e-04,-1.494201552122831345e-02,7.645023870281875134e-04,-8.659840095788240433e-04,1.133434288203716278e-02,4.633920267224311829e-02,1.869390904903411865e-02,-3.866047039628028870e-02,2.091033011674880981e-02,-2.731216372922062874e-04,3.099351748824119568e-02,-2.726396173238754272e-02,2.669168822467327118e-02,2.993896417319774628e-02,-1.744446530938148499e-02,-7.908649742603302002e-03,-1.211270876228809357e-02,1.470855623483657837e-02,-1.499983109533786774e-02,6.296494510024785995e-03,-2.074496820569038391e-02,-1.397435989929363132e-04,-1.160783320665359497e-02,-2.297234022989869118e-04,1.793539524078369141e-02,6.625335663557052612e-03,-2.964052744209766388e-02,2.354465611279010773e-02,-7.056301925331354141e-03,-7.228080928325653076e-02,1.469838060438632965e-02,3.659280762076377869e-02,3.927218168973922729e-02,4.045123979449272156e-02,7.417534291744232178e-02,2.538851695135235786e-03,-6.153383757919073105e-03,2.622932568192481995e-02,2.840657904744148254e-02,1.646017283201217651e-02,-2.409521955996751785e-03,4.265882819890975952e-02,-1.771423732861876488e-03,-4.134293273091316223e-02,-2.152714319527149200e-02,-1.212629955261945724e-02,-1.805025339126586914e-02,2.874258905649185181e-02,4.646603018045425415e-03,4.449689015746116638e-02,1.566073857247829437e-03,-2.170247212052345276e-02,-2.474291063845157623e-02,2.475732751190662384e-02,7.878851145505905151e-03,6.764718145132064819e-02,6.185980513691902161e-02,-7.135950773954391479e-02,2.526548318564891815e-02,-1.612081006169319153e-02,6.458677351474761963e-02,6.794594228267669678e-02,8.210023515857756138e-04,1.760163158178329468e-02,3.656914830207824707e-02,-5.224815569818019867e-03,-7.253732532262802124e-03,-2.468585968017578125e-02,-2.083039656281471252e-02,3.022816404700279236e-02,1.343241543509066105e-03,-2.333681331947445869e-03,-4.631066229194402695e-03,-2.130360156297683716e-02,2.344168163836002350e-02,2.629184536635875702e-02,9.497153572738170624e-03,-1.297711208462715149e-02,-1.483262237161397934e-02,-2.961396938189864159e-03,1.271012984216213226e-02,-3.690825402736663818e-02,3.234897926449775696e-02,1.211413741111755371e-01,-3.789782896637916565e-02,-8.431814610958099365e-02,-2.030225470662117004e-02,-7.965918630361557007e-03,3.736184909939765930e-02,-2.864680439233779907e-02,-8.440849930047988892e-02,1.660613343119621277e-02,-3.372799232602119446e-02,-4.418756440281867981e-02,-3.477469459176063538e-02,-3.815441951155662537e-02,-2.266437560319900513e-02,-7.559960708022117615e-03,2.530834078788757324e-02,4.840502142906188965e-02,1.756907207891345024e-03,2.733595110476016998e-02,1.590654999017715454e-02,2.325763925909996033e-03,2.921922132372856140e-02,4.777993634343147278e-02,6.758995354175567627e-03,2.052246127277612686e-03,-2.288847044110298157e-02,-3.214800357818603516e-02,1.762704364955425262e-02,-2.080942504107952118e-02,1.508220098912715912e-02,-3.270253911614418030e-02,-2.361041493713855743e-02,-4.906740970909595490e-03,5.608507990837097168e-02,-3.296307101845741272e-02,-3.541810438036918640e-02,-9.932431566994637251e-05,2.341440692543983459e-02,1.628065109252929688e-02,-3.327020257711410522e-02,-2.002022787928581238e-02,-1.734180189669132233e-02,2.537506818771362305e-02,1.193003542721271515e-02,5.179021507501602173e-02,2.353759668767452240e-02,2.136025018990039825e-02,1.738657429814338684e-02,-1.436785608530044556e-02,4.510640725493431091e-02,5.449954885989427567e-03,3.078514151275157928e-02,-4.061955958604812622e-02,3.478199476376175880e-03,1.499771606177091599e-02,3.069225139915943146e-02,-1.255721691995859146e-02,7.382828742265701294e-03,2.493781782686710358e-02,2.123482152819633484e-02,6.026681978255510330e-03,6.823343783617019653e-02,-8.971486240625381470e-02,-6.802163552492856979e-03,4.471965506672859192e-02,7.822702080011367798e-02,9.864886291325092316e-03,1.106592011637985706e-03,-9.170892648398876190e-03,1.544843427836894989e-02,1.869522593915462494e-02,-2.437310479581356049e-02,4.635218530893325806e-03,3.904042765498161316e-02,1.269327197223901749e-02,4.178301244974136353e-02,8.707526139914989471e-03,4.408422484993934631e-02,2.013907767832279205e-02,3.453554585576057434e-02,1.804769784212112427e-02,1.466606836766004562e-02,-1.861634477972984314e-02,-3.024297766387462616e-02,-3.068134933710098267e-02,1.148921716958284378e-02,5.143524613231420517e-03,-2.855798788368701935e-02,9.431862854398787022e-04,5.061064660549163818e-02,4.307085275650024414e-02,-1.092380029149353504e-03,-1.222857367247343063e-02,-2.168402774259448051e-03,9.117970243096351624e-03,-2.234012074768543243e-02,2.541173715144395828e-03,1.260019652545452118e-02,3.476178646087646484e-02,2.432894892990589142e-02,3.810865804553031921e-02,-1.788234151899814606e-02,-1.264326740056276321e-02,1.230535469949245453e-02,1.052107475697994232e-02,-4.129937663674354553e-02,-7.072561979293823242e-02,1.542570721358060837e-02,-2.834787033498287201e-02,-1.444717030972242355e-02,2.023152448236942291e-02,3.354585170745849609e-02,1.463972870260477066e-02,1.985571980476379395e-01,3.865246847271919250e-02,-6.900388747453689575e-02,-2.958010695874691010e-02,-1.899587921798229218e-02,2.675183117389678955e-03,5.418555811047554016e-03,5.164098367094993591e-02,6.704936176538467407e-02,2.371012046933174133e-02,3.853743663057684898e-03,7.707946933805942535e-03,-3.744078334420919418e-03,4.874917119741439819e-02,2.833651006221771240e-02,3.103083558380603790e-02,9.256373159587383270e-03,1.730325445532798767e-02,-2.030037716031074524e-02,-4.471797123551368713e-02,-1.893422752618789673e-02,4.221499338746070862e-02,3.176717087626457214e-02,1.450324207544326782e-01,2.702619414776563644e-03,4.453258514404296875e-01,-1.363652665168046951e-02,7.676258683204650879e-02,2.125007808208465576e-01,5.626310035586357117e-02,-2.290195989189669490e-04,1.122920867055654526e-02,-5.532468669116497040e-03,-5.177271738648414612e-02,-1.485982909798622131e-02,-1.533208996988832951e-03,-2.859768457710742950e-03,2.706337720155715942e-02,1.463596802204847336e-02,3.717768937349319458e-03,-8.058289065957069397e-03,-2.248882316052913666e-02,6.906515359878540039e-02,-5.526233091950416565e-02,-2.389791235327720642e-02,-3.176011377945542336e-03,-5.234263837337493896e-03,-1.443438231945037842e-02,1.179670449346303940e-02,7.796399295330047607e-02,-8.347183465957641602e-02,1.219717636704444885e-01,-1.539966315031051636e-01,-5.567375570535659790e-02,1.471764296293258667e-01,1.587129980325698853e-01,4.254848062992095947e-01,4.155041649937629700e-02,2.646318078041076660e-02,-4.238813370466232300e-02,-1.979900524020195007e-02,8.837901987135410309e-03,-2.420682460069656372e-02,-9.235873818397521973e-03,8.650735020637512207e-03,5.270721763372421265e-02,2.527185250073671341e-03,2.322656847536563873e-02,1.913343742489814758e-02,-5.652208626270294189e-02,-5.191336572170257568e-02,-5.422570928931236267e-02,-2.134495228528976440e-02,-4.278923571109771729e-02,-2.200306020677089691e-02,5.420214729383587837e-04,1.408041547983884811e-02,5.977149307727813721e-02,-4.731782898306846619e-02,5.646507721394300461e-03,-9.426225721836090088e-02,1.520663965493440628e-02,3.620393946766853333e-02,6.274660229682922363e-01,-3.810702264308929443e-02,-1.044369861483573914e-01,-7.093656808137893677e-02,-5.136747285723686218e-02,-1.082871947437524796e-02,1.143938396126031876e-03,-3.257485805079340935e-03,-4.416306316852569580e-02,-1.861754991114139557e-02,2.260154113173484802e-02,1.187213137745857239e-02,1.427476992830634117e-03,-4.764925688505172729e-03,-5.092741176486015320e-02,-6.453683972358703613e-02,-3.587120026350021362e-02,-2.576183341443538666e-02,-9.687195532023906708e-03,-2.584389294497668743e-04,2.105677500367164612e-02,2.637334913015365601e-02,-2.094111591577529907e-02,-4.702080041170120239e-02,-3.751233965158462524e-02,-6.868283450603485107e-02,-2.419152483344078064e-02,-3.239591792225837708e-02,-1.024577990174293518e-01,1.688113622367382050e-02,2.632891386747360229e-02,8.019700646400451660e-03,-5.258773639798164368e-02,-1.574081182479858398e-02,1.759656891226768494e-02,-3.764598071575164795e-02,-1.570098660886287689e-02,-6.699271965771913528e-03,-3.827441111207008362e-02,-2.805995382368564606e-02,-2.296326681971549988e-03,-1.785524562001228333e-02,-1.201569102704524994e-02,-1.035214588046073914e-02,-4.488989338278770447e-02,-6.277477741241455078e-02,-6.663458794355392456e-02,-4.147162288427352905e-02,4.112966731190681458e-02,2.505530975759029388e-02,5.427679512649774551e-03,-9.163731709122657776e-03,-4.279521480202674866e-02,2.674843708518892527e-04,-3.628959506750106812e-02,-2.735140919685363770e-02,-8.125633746385574341e-02,5.469386000186204910e-03,1.016131602227687836e-02,-2.265032008290290833e-02,-5.080187693238258362e-02,-3.461170243099331856e-03,5.923167802393436432e-03,-1.623294129967689514e-02,-1.753059960901737213e-02,-1.653334312140941620e-02,-2.105210721492767334e-02,-1.987068355083465576e-02,1.579901762306690216e-02,1.144483592361211777e-02,1.954616792500019073e-02,2.534874714910984039e-02,-4.857359081506729126e-02,-3.182107210159301758e-02,-3.959669172763824463e-02,-1.242064684629440308e-02,-8.368856273591518402e-03,9.497381746768951416e-03,2.188718691468238831e-02,-3.292412310838699341e-02,1.233455166220664978e-02,-1.299943681806325912e-02,-2.269556745886802673e-02,1.653733849525451660e-02,-2.155518159270286560e-02,-2.000904269516468048e-02,1.679058000445365906e-02,8.534085005521774292e-03,2.557847462594509125e-02,6.836355198174715042e-03,-1.444647787138819695e-03,-4.444875568151473999e-02,-2.415473572909832001e-02,-3.063797950744628906e-02,3.671640530228614807e-02,2.090046554803848267e-02,2.224978804588317871e-02,1.312341634184122086e-02,1.281824801117181778e-02,-4.474794492125511169e-02,-4.850960150361061096e-02,-1.185010932385921478e-02,-3.861233219504356384e-02,-3.113369271159172058e-02,-2.948704361915588379e-02,-3.791186260059475899e-03,2.088408172130584717e-02,1.806445792317390442e-02,-1.029725447297096252e-01,3.404197096824645996e-02,2.691816166043281555e-02,-9.410616010427474976e-03,-2.387550473213195801e-02,-4.347491543740034103e-03,5.441213771700859070e-02,2.503759786486625671e-02,3.407785296440124512e-02,6.479976326227188110e-02,-7.898617535829544067e-03,-3.906265273690223694e-02,-2.171126566827297211e-02,-2.124521182850003242e-03,1.626699604094028473e-02,-2.365423599258065224e-03,2.305020764470100403e-02,-2.994081936776638031e-02,-9.018382406793534756e-04,4.151920322328805923e-03,-2.581201680004596710e-02,2.252672798931598663e-02,4.013535566627979279e-03,-7.988969981670379639e-02,-4.863374307751655579e-02,-6.837373226881027222e-02,3.851625695824623108e-02,-1.538607925176620483e-01,-1.511850655078887939e-01,-9.385982528328895569e-03,-2.928619040176272392e-03,-3.201470896601676941e-02,-1.491476036608219147e-02,4.206693917512893677e-02,6.068655103445053101e-02,1.629516296088695526e-02,2.508852444589138031e-02,4.597963020205497742e-02,-3.753627464175224304e-02,1.946776174008846283e-02,6.920486688613891602e-02,5.381198227405548096e-02,2.955140173435211182e-02,-9.188974276185035706e-03,-4.346247762441635132e-02,4.309293627738952637e-02,2.159248292446136475e-02,7.240475714206695557e-02,9.573854506015777588e-02,5.566624924540519714e-02,1.414271420799195766e-03,3.817072883248329163e-02,2.171694114804267883e-02,4.283815249800682068e-02,-2.023771964013576508e-02,-3.359190374612808228e-02,-3.014059364795684814e-02,2.417970262467861176e-02,-1.191764231771230698e-02,3.290464729070663452e-02,-1.071471069008111954e-02,2.714438131079077721e-03,3.094701329246163368e-03,6.251531187444925308e-03,1.538044586777687073e-02,2.903997898101806641e-02,2.930742688477039337e-02,4.872383177280426025e-02,1.691212318837642670e-02,2.062696777284145355e-02,3.158985078334808350e-02,6.727668642997741699e-02,4.538453742861747742e-02,6.692411378026008606e-03,1.930405944585800171e-02,-8.157543838024139404e-03,3.432665020227432251e-02,2.495638281106948853e-02,4.231453314423561096e-02,1.046997378580272198e-03,4.917126148939132690e-02,3.738541901111602783e-02,-1.544507965445518494e-02,-7.892380468547344208e-03,2.516442723572254181e-02,-3.411315381526947021e-02,-2.299197763204574585e-02,-8.506541140377521515e-03,-2.718384005129337311e-02,3.312551975250244141e-02,1.023989077657461166e-02,-5.989751662127673626e-04,4.304485023021697998e-02,-1.460877992212772369e-02,9.189016185700893402e-03,-9.076652117073535919e-03,2.661098912358283997e-02,3.633420541882514954e-02,9.136345237493515015e-03,-1.325146295130252838e-03,1.064074877649545670e-02,2.461274527013301849e-02,2.002715831622481346e-03,1.374302711337804794e-02,3.336586058139801025e-02,3.549199551343917847e-02,5.124879628419876099e-02,5.144962668418884277e-02,-1.830857619643211365e-02,-1.794354803860187531e-02,-2.416522614657878876e-02,-3.121910989284515381e-02,5.705927498638629913e-03,1.190619892440736294e-03
